{"learner":{"attributes":{"best_iteration":"0","best_score":"0.2639607044817955","scikit_learn":"{\"_estimator_type\": \"regressor\"}"},"feature_names":[],"feature_types":[],"gradient_booster":{"model":{"gbtree_model_param":{"num_parallel_tree":"1","num_trees":"13"},"iteration_indptr":[0,1,2,3,4,5,6,7,8,9,10,11,12,13],"tree_info":[0,0,0,0,0,0,0,0,0,0,0,0,0],"trees":[{"base_weights":[-6.7014363E-9,3.036947E-1,-1.730421E-1,1.7886022E-1,4.1751772E-1,-2.4243787E-1,-9.764581E-2,-6.345082E-1,2.0454891E-1,4.763531E-1,3.1021014E-1,-1.8068229E-1,-3.1327894E-1,-2.818865E-3,-2.1018901E-1,-5.87683E-2,-7.3184156E-1,1.6880733E-1,3.6814108E-1,6.713509E-1,4.4832316E-1,2.7732518E-1,1.863578E-1,-2.1110666E-1,-5.901586E-2,-1.9273871E-1,-4.2671856E-1,-1.260999E-1,6.504196E-3,-2.7544492E-1,9.734289E-2,-6.0659688E-2,-2.3592466E-1,2.0040393E-1,5.397996E-2,2.456779E-1,4.9589607E-1,7.422946E-1,1.0398837E-1,4.6309343E-1,2.0664056E-1,2.9094514E-1,-4.0772986E-2,1.3176162E-2,-2.3328091E-1,-8.769198E-2,1.3834041E-1,-1.2065267E-1,-4.0510482E-1,-3.6934558E-1,-5.1285106E-1,3.2504886E-1,-1.9989097E-3,-1.2277599E-1,-3.128044E-1,2.5385576E-1,-2.2263592E-1,-1.4183997E-1,6.2041856E-2,1.5368253E-1,1.0370567E-2,9.345997E-3,8.7905236E-2,1.7928918E-1,3.2412976E-2,1.1333669E-1,2.3700295E-1,9.835917E-2,1.4350252E-1,2.1935606E-2,7.92785E-2,1.1142756E-1,7.551245E-2,-1.8320164E-1,3.182838E-2,-5.211201E-2,-8.2149446E-2,-1.5507068E-2,-5.8347132E-2,1.978134E-2,7.110965E-2,6.589202E-2,-4.390511E-2,-1.6005401E-1,-8.877751E-2,-4.9017284E-2,-1.4078915E-1,-1.6540591E-1,-7.398283E-2,1.2687226E-1,4.3778405E-2,-5.7571862E-2,2.593168E-3,1.17311694E-1,-6.8413965E-2,-7.13382E-2,-1.3009499E-1,8.514491E-3,1.6563685E-1,-9.396964E-2,1.4326718E-1],"categories":[],"categories_nodes":[],"categories_segments":[],"categories_sizes":[],"default_left":[0,0,0,0,0,0,0,0,0,0,0,0,0,0,0,0,0,0,0,0,0,0,0,0,0,0,0,0,0,0,0,0,0,0,0,0,0,0,0,0,0,0,0,0,0,0,0,0,0,0,0,0,0,0,0,0,0,0,0,0,0,0,0,0,0,0,0,0,0,0,0,0,0,0,0,0,0,0,0,0,0,0,0,0,0,0,0,0,0,0,0,0,0,0,0,0,0,0,0,0,0],"id":0,"left_children":[1,3,5,7,9,11,13,15,17,19,21,23,25,27,29,-1,31,33,35,37,39,41,-1,43,45,47,49,-1,51,53,55,-1,-1,57,59,61,63,65,-1,67,69,71,-1,73,75,77,79,81,83,85,87,89,91,93,95,97,99,-1,-1,-1,-1,-1,-1,-1,-1,-1,-1,-1,-1,-1,-1,-1,-1,-1,-1,-1,-1,-1,-1,-1,-1,-1,-1,-1,-1,-1,-1,-1,-1,-1,-1,-1,-1,-1,-1,-1,-1,-1,-1,-1,-1],"loss_changes":[8.629033E1,8.393909E0,5.449192E0,6.1055775E0,1.8157272E0,2.3233051E0,5.367488E0,2.4086213E-1,1.5633335E0,7.8670883E-1,9.8333836E-1,1.0721169E0,3.3636131E0,1.0692816E0,4.642514E0,0E0,4.3320417E-2,8.23658E-1,6.4478827E-1,2.7255344E-1,5.3614426E-1,6.2487936E-1,0E0,1.1668272E0,3.5169607E-1,1.8493934E0,4.4805717E-1,0E0,7.292682E-1,1.0452862E0,2.1098304E0,0E0,0E0,8.735819E-1,4.3599516E-1,2.6506972E-1,8.429642E-1,1.46074295E-2,0E0,1.8546677E-1,7.300168E-2,2.2544575E-1,0E0,1.3400631E0,4.6699238E-1,1.9372809E-1,4.153496E-2,8.5414946E-1,2.7672863E-1,1.5907459E0,3.6632156E-1,6.0985625E-2,5.332202E-1,2.1986692E0,1.2747097E0,1.8673719E0,1.037674E0,0E0,0E0,0E0,0E0,0E0,0E0,0E0,0E0,0E0,0E0,0E0,0E0,0E0,0E0,0E0,0E0,0E0,0E0,0E0,0E0,0E0,0E0,0E0,0E0,0E0,0E0,0E0,0E0,0E0,0E0,0E0,0E0,0E0,0E0,0E0,0E0,0E0,0E0,0E0,0E0,0E0,0E0,0E0,0E0],"parents":[2147483647,0,0,1,1,2,2,3,3,4,4,5,5,6,6,7,7,8,8,9,9,10,10,11,11,12,12,13,13,14,14,16,16,17,17,18,18,19,19,20,20,21,21,23,23,24,24,25,25,26,26,28,28,29,29,30,30,33,33,34,34,35,35,36,36,37,37,39,39,40,40,41,41,43,43,44,44,45,45,46,46,47,47,48,48,49,49,50,50,51,51,52,52,53,53,54,54,55,55,56,56],"right_children":[2,4,6,8,10,12,14,16,18,20,22,24,26,28,30,-1,32,34,36,38,40,42,-1,44,46,48,50,-1,52,54,56,-1,-1,58,60,62,64,66,-1,68,70,72,-1,74,76,78,80,82,84,86,88,90,92,94,96,98,100,-1,-1,-1,-1,-1,-1,-1,-1,-1,-1,-1,-1,-1,-1,-1,-1,-1,-1,-1,-1,-1,-1,-1,-1,-1,-1,-1,-1,-1,-1,-1,-1,-1,-1,-1,-1,-1,-1,-1,-1,-1,-1,-1,-1],"split_conditions":[8E1,2.93E1,1E-1,2.68E1,7.4E1,8.7E1,8.8E1,2.5E1,3E-1,6.7E1,7E-1,2.82E1,2.63E1,2.58E1,2.7E0,-5.87683E-2,7.7E1,7.9E1,2.87E1,3.12E1,3.1E1,4E-1,1.863578E-1,2.65E1,2.91E1,9.5E1,2.72E1,-1.260999E-1,2.6E1,8.9E1,5.7E0,-6.0659688E-2,-2.3592466E-1,6.7E1,2.71E1,5E-1,2.91E1,6.3E1,1.0398837E-1,6.9E1,1E-1,7.5E1,-4.0772986E-2,8.2E1,8.3E1,2.87E1,8.2E1,2.44E1,9.6E1,8.9E1,2.78E1,2.59E1,2.63E1,2.6E1,8E-1,9.2E1,1.2E1,-1.4183997E-1,6.2041856E-2,1.5368253E-1,1.0370567E-2,9.345997E-3,8.7905236E-2,1.7928918E-1,3.2412976E-2,1.1333669E-1,2.3700295E-1,9.835917E-2,1.4350252E-1,2.1935606E-2,7.92785E-2,1.1142756E-1,7.551245E-2,-1.8320164E-1,3.182838E-2,-5.211201E-2,-8.2149446E-2,-1.5507068E-2,-5.8347132E-2,1.978134E-2,7.110965E-2,6.589202E-2,-4.390511E-2,-1.6005401E-1,-8.877751E-2,-4.9017284E-2,-1.4078915E-1,-1.6540591E-1,-7.398283E-2,1.2687226E-1,4.3778405E-2,-5.7571862E-2,2.593168E-3,1.17311694E-1,-6.8413965E-2,-7.13382E-2,-1.3009499E-1,8.514491E-3,1.6563685E-1,-9.396964E-2,1.4326718E-1],"split_indices":[1,0,2,0,1,1,1,0,2,1,2,0,0,0,2,0,1,1,0,0,0,2,0,0,0,1,0,0,0,1,2,0,0,1,0,2,0,1,0,1,2,1,0,1,1,0,1,0,1,1,0,0,0,0,2,1,2,0,0,0,0,0,0,0,0,0,0,0,0,0,0,0,0,0,0,0,0,0,0,0,0,0,0,0,0,0,0,0,0,0,0,0,0,0,0,0,0,0,0,0,0],"split_type":[0,0,0,0,0,0,0,0,0,0,0,0,0,0,0,0,0,0,0,0,0,0,0,0,0,0,0,0,0,0,0,0,0,0,0,0,0,0,0,0,0,0,0,0,0,0,0,0,0,0,0,0,0,0,0,0,0,0,0,0,0,0,0,0,0,0,0,0,0,0,0,0,0,0,0,0,0,0,0,0,0,0,0,0,0,0,0,0,0,0,0,0,0,0,0,0,0,0,0,0,0],"sum_hessian":[1.64E3,5.95E2,1.045E3,2.85E2,3.1E2,5.43E2,5.02E2,8E0,2.77E2,1.98E2,1.12E2,2.92E2,2.51E2,2.73E2,2.29E2,2E0,6E0,2.29E2,4.8E1,2.2E1,1.76E2,1.03E2,9E0,2.33E2,5.9E1,1.23E2,1.28E2,5E0,2.68E2,1.89E2,4E1,1E0,5E0,1.79E2,5E1,2.6E1,2.2E1,1.7E1,5E0,1.65E2,1.1E1,1E2,3E0,2.1E1,2.12E2,5.2E1,7E0,9.3E1,3E1,8E1,4.8E1,6E0,2.62E2,3.8E1,1.51E2,2.7E1,1.3E1,1E0,1.78E2,1E0,4.9E1,5E0,2.1E1,1.7E1,5E0,3E0,1.4E1,1.9E1,1.46E2,4E0,7E0,3E1,7E1,2E0,1.9E1,8.8E1,1.24E2,4E1,1.2E1,5E0,2E0,6E0,8.7E1,1.2E1,1.8E1,2.7E1,5.3E1,4.1E1,7E0,3E0,3E0,1.3E1,2.49E2,6E0,3.2E1,9.5E1,5.6E1,1.6E1,1.1E1,1.2E1,1E0],"tree_param":{"num_deleted":"0","num_feature":"3","num_nodes":"101","size_leaf_vector":"1"}},{"base_weights":[1.850218E-4,2.1454565E-1,-1.2195563E-1,-4.8363936E-1,2.2486728E-1,-1.3390057E-1,1.0436936E-1,-4.7014643E-2,-1.663975E-1,1.4459868E-1,2.958956E-1,-9.2044674E-2,-2.1746074E-1,3.88616E-1,-7.6324046E-3,1.1853148E-1,2.6400393E-1,3.9818668E-1,2.5994328E-1,-1.4852478E-1,-2.1324398E-2,-1.6329573E-1,-2.892909E-1,1.3679612E-1,2.2306396E-1,-6.282748E-2,3.0641177E-1,1.8544595E-1,1.1143763E-1,2.9855996E-1,1.4016305E-2,-2.8663338E-3,4.0353662E-1,2.8707865E-1,2.0341258E-1,-1.6624834E-1,-2.0460434E-2,-1.3327818E-2,-3.075353E-1,-2.8946674E-1,-1.0041148E-1,-2.996228E-1,4.1844904E-2,-1.216082E-1,3.293337E-1,-1.225722E-1,-2.8450388E-2,4.7614474E-2,1.2717205E-1,-1.3629401E-2,3.827141E-2,-4.338788E-2,9.376665E-2,7.426196E-2,-6.6903405E-2,1.4690971E-1,1.0828275E-1,8.9830056E-2,6.2149614E-2,5.1355097E-2,1.4041391E-1,-2.4724277E-2,-6.0991906E-2,3.8233188E-3,-7.318501E-2,4.8087288E-2,-7.02525E-3,-2.718464E-2,-1.9165897E-1,-1.1760536E-1,1.0883478E-2,-1.884571E-2,-8.722582E-2,-1.0361613E-1,-5.487815E-2,-1.2403407E-1,1.6413957E-2,1.2130401E-1,-6.8597053E-3,3.5602324E-2,-4.0608227E-2,-5.5901457E-2,7.7327974E-2],"categories":[],"categories_nodes":[],"categories_segments":[],"categories_sizes":[],"default_left":[0,0,0,0,0,0,0,0,0,0,0,0,0,0,0,0,0,0,0,0,0,0,0,0,0,0,0,0,0,0,0,0,0,0,0,0,0,0,0,0,0,0,0,0,0,0,0,0,0,0,0,0,0,0,0,0,0,0,0,0,0,0,0,0,0,0,0,0,0,0,0,0,0,0,0,0,0,0,0,0,0,0,0],"id":1,"left_children":[1,3,5,7,9,11,13,-1,-1,15,17,19,21,23,25,27,29,31,33,35,37,39,41,43,-1,45,47,-1,49,51,53,-1,55,57,59,61,63,65,67,69,71,73,-1,75,77,-1,79,81,-1,-1,-1,-1,-1,-1,-1,-1,-1,-1,-1,-1,-1,-1,-1,-1,-1,-1,-1,-1,-1,-1,-1,-1,-1,-1,-1,-1,-1,-1,-1,-1,-1,-1,-1],"loss_changes":[4.299107E1,4.4037743E0,2.841773E0,1.2203646E-1,3.3096008E0,3.4564838E0,1.6902807E0,0E0,0E0,8.339987E-1,1.0402279E0,2.6490402E0,1.2405758E0,1.2389643E0,6.9526505E-1,7.4628925E-1,4.19106E-1,1.7618561E-1,2.9902172E-1,8.341379E-1,6.733589E-1,1.486361E0,6.664295E-1,5.3757507E-1,0E0,3.9249173E-1,1.6226023E-1,0E0,5.828366E-1,3.119166E-1,4.4266495E-1,0E0,1.0950756E-1,9.100151E-2,5.936582E-1,9.8982334E-1,3.4447196E-1,5.100117E-1,5.170818E-1,2.1187682E0,9.0478075E-1,6.738062E-1,0E0,2.79908E-1,1.6776288E-1,0E0,5.1939714E-1,1.9552276E-1,0E0,0E0,0E0,0E0,0E0,0E0,0E0,0E0,0E0,0E0,0E0,0E0,0E0,0E0,0E0,0E0,0E0,0E0,0E0,0E0,0E0,0E0,0E0,0E0,0E0,0E0,0E0,0E0,0E0,0E0,0E0,0E0,0E0,0E0,0E0],"parents":[2147483647,0,0,1,1,2,2,3,3,4,4,5,5,6,6,9,9,10,10,11,11,12,12,13,13,14,14,15,15,16,16,17,17,18,18,19,19,20,20,21,21,22,22,23,23,25,25,26,26,28,28,29,29,30,30,32,32,33,33,34,34,35,35,36,36,37,37,38,38,39,39,40,40,41,41,43,43,44,44,46,46,47,47],"right_children":[2,4,6,8,10,12,14,-1,-1,16,18,20,22,24,26,28,30,32,34,36,38,40,42,44,-1,46,48,-1,50,52,54,-1,56,58,60,62,64,66,68,70,72,74,-1,76,78,-1,80,82,-1,-1,-1,-1,-1,-1,-1,-1,-1,-1,-1,-1,-1,-1,-1,-1,-1,-1,-1,-1,-1,-1,-1,-1,-1,-1,-1,-1,-1,-1,-1,-1,-1,-1,-1],"split_conditions":[8E1,2.68E1,3.4E0,2.5E1,2.93E1,8.9E1,4.4E0,-4.7014643E-2,-1.663975E-1,3E-1,7.1E1,1E-1,2.62E1,9.2E1,2.73E1,2.72E1,2.7E0,2.95E1,7.5E1,2.83E1,2.8E0,9.1E1,2.78E1,2.59E1,2.2306396E-1,4.6E0,8.3E1,1.8544595E-1,2.78E1,7.4E1,7.9E1,-2.8663338E-3,6.7E1,2E-1,6E-1,2.7E1,8.4E1,2.6E1,2.75E1,2.6E1,1.1E0,4E-1,4.1844904E-2,8.8E1,2.72E1,-1.225722E-1,5.7E0,2.81E1,1.2717205E-1,-1.3629401E-2,3.827141E-2,-4.338788E-2,9.376665E-2,7.426196E-2,-6.6903405E-2,1.4690971E-1,1.0828275E-1,8.9830056E-2,6.2149614E-2,5.1355097E-2,1.4041391E-1,-2.4724277E-2,-6.0991906E-2,3.8233188E-3,-7.318501E-2,4.8087288E-2,-7.02525E-3,-2.718464E-2,-1.9165897E-1,-1.1760536E-1,1.0883478E-2,-1.884571E-2,-8.722582E-2,-1.0361613E-1,-5.487815E-2,-1.2403407E-1,1.6413957E-2,1.2130401E-1,-6.8597053E-3,3.5602324E-2,-4.0608227E-2,-5.5901457E-2,7.7327974E-2],"split_indices":[1,0,2,0,0,1,2,0,0,2,1,2,0,1,0,0,2,0,1,0,2,1,0,0,0,2,1,0,0,1,1,0,1,2,2,0,1,0,0,0,2,2,0,1,0,0,2,0,0,0,0,0,0,0,0,0,0,0,0,0,0,0,0,0,0,0,0,0,0,0,0,0,0,0,0,0,0,0,0,0,0,0,0],"split_type":[0,0,0,0,0,0,0,0,0,0,0,0,0,0,0,0,0,0,0,0,0,0,0,0,0,0,0,0,0,0,0,0,0,0,0,0,0,0,0,0,0,0,0,0,0,0,0,0,0,0,0,0,0,0,0,0,0,0,0,0,0,0,0,0,0,0,0,0,0,0,0,0,0,0,0,0,0,0,0,0,0,0,0],"sum_hessian":[1.64E3,5.95E2,1.045E3,8E0,5.87E2,9.93E2,5.2E1,2E0,6E0,2.77E2,3.1E2,6.63E2,3.3E2,1.4E1,3.8E1,2.29E2,4.8E1,7.8E1,2.32E2,3.68E2,2.95E2,1.9E2,1.4E2,9E0,5E0,3.3E1,5E0,2E0,2.27E2,4.2E1,6E0,1E0,7.7E1,1.54E2,7.8E1,3.23E2,4.5E1,2.88E2,7E0,6.2E1,1.28E2,1.37E2,3E0,4E0,5E0,2E0,3.1E1,2E0,3E0,2.1E1,2.06E2,1E0,4.1E1,3E0,3E0,2.2E1,5.5E1,1.31E2,2.3E1,7.1E1,7E0,1E2,2.23E2,4E1,5E0,1.5E1,2.73E2,5E0,2E0,4.7E1,1.5E1,1.08E2,2E1,9.7E1,4E1,1E0,3E0,4E0,1E0,1.3E1,1.8E1,1E0,1E0],"tree_param":{"num_deleted":"0","num_feature":"3","num_nodes":"83","size_leaf_vector":"1"}},{"base_weights":[2.7520975E-4,1.6978167E-1,-7.828418E-2,-3.377578E-1,1.7736556E-1,-3.7555072E-2,-1.2553293E-1,-3.761171E-2,-3.8765755E-1,1.4243892E-1,2.3406225E-1,-7.619083E-2,8.635936E-3,-1.438718E-1,6.169738E-2,-2.6601104E-2,-1.2891628E-1,1.22992665E-1,2.6484868E-1,2.4469584E-1,6.718718E-2,-8.297362E-2,1.2743647E-1,7.152839E-2,-9.919487E-3,-9.82978E-2,-1.8179277E-1,2.133257E-1,-4.881204E-2,-1.1851956E-1,1.2628914E-1,3.1735048E-1,1.4568864E-1,3.491767E-1,2.2814737E-1,-2.824275E-1,1.5642871E-1,-1.0789041E-1,-4.7768418E-2,5.4958005E-2,9.071793E-2,-1.0406913E-2,2.0510688E-1,-2.1018537E-2,1.5013969E-1,-1.3063474E-1,3.1814136E-2,-1.5514804E-1,-2.8637436E-1,4.4560462E-2,7.107093E-1,-9.805777E-2,-1.4852289E-2,9.939738E-2,3.63906E-2,-8.23742E-2,1.044892E-1,4.123104E-3,1.515304E-1,7.019439E-2,1.6077612E-1,7.136911E-2,2.988041E-2,-1.0191438E-1,-2.5177995E-2,1.2103263E-1,4.010533E-3,-2.1938434E-2,-5.237967E-2,5.048694E-4,-4.272226E-2,-2.8546497E-3,5.612306E-2,1.6066125E-2,-3.0027647E-2,8.427456E-2,-4.174432E-2,-2.68651E-4,-5.3014316E-2,1.020566E-1,2.0214576E-2,7.5772395E-3,-4.4635262E-2,4.4327393E-2,-3.855609E-2,-6.2553406E-2,-1.81269E-2,-9.55419E-2,2.1788241E-2,-2.3359723E-2,5.3015966E-2,2.751077E-1,8.024694E-2,3.644168E-2,-2.8250862E-2],"categories":[],"categories_nodes":[],"categories_segments":[],"categories_sizes":[],"default_left":[0,0,0,0,0,0,0,0,0,0,0,0,0,0,0,0,0,0,0,0,0,0,0,0,0,0,0,0,0,0,0,0,0,0,0,0,0,0,0,0,0,0,0,0,0,0,0,0,0,0,0,0,0,0,0,0,0,0,0,0,0,0,0,0,0,0,0,0,0,0,0,0,0,0,0,0,0,0,0,0,0,0,0,0,0,0,0,0,0,0,0,0,0,0,0],"id":2,"left_children":[1,3,5,7,9,11,13,-1,15,17,19,21,23,25,27,-1,-1,29,31,33,35,37,39,41,43,45,47,49,51,-1,53,55,57,59,61,63,65,67,69,71,-1,73,75,77,79,81,83,85,87,89,91,-1,93,-1,-1,-1,-1,-1,-1,-1,-1,-1,-1,-1,-1,-1,-1,-1,-1,-1,-1,-1,-1,-1,-1,-1,-1,-1,-1,-1,-1,-1,-1,-1,-1,-1,-1,-1,-1,-1,-1,-1,-1,-1,-1],"loss_changes":[2.186538E1,2.061451E0,2.1544614E0,3.6182225E-2,9.8251534E-1,1.0785712E0,1.7909117E0,0E0,3.7355006E-2,7.2915745E-1,3.2780838E-1,4.649757E-1,3.2280046E-1,7.9957294E-1,7.979616E-1,0E0,0E0,5.246506E-1,2.227788E-1,2.3501396E-1,4.497817E-1,2.7467346E-1,1.2286754E-1,6.916566E-1,3.8332775E-1,9.171667E-1,6.717129E-1,1.6471517E0,2.5953293E-1,0E0,2.4305344E-1,6.2686944E-1,7.0439845E-1,3.6938095E-1,1.7683029E-1,5.603507E-3,3.8332245E-1,4.1855478E-1,6.2736344E-1,7.844362E-2,0E0,2.3481339E-1,6.654253E-1,6.295894E-1,1.9726986E-1,4.960668E-1,8.3694065E-1,1.0337529E0,6.108265E-1,2.7263683E-1,2.1192217E-1,0E0,2.925741E-1,0E0,0E0,0E0,0E0,0E0,0E0,0E0,0E0,0E0,0E0,0E0,0E0,0E0,0E0,0E0,0E0,0E0,0E0,0E0,0E0,0E0,0E0,0E0,0E0,0E0,0E0,0E0,0E0,0E0,0E0,0E0,0E0,0E0,0E0,0E0,0E0,0E0,0E0,0E0,0E0,0E0,0E0],"parents":[2147483647,0,0,1,1,2,2,3,3,4,4,5,5,6,6,8,8,9,9,10,10,11,11,12,12,13,13,14,14,17,17,18,18,19,19,20,20,21,21,22,22,23,23,24,24,25,25,26,26,27,27,28,28,30,30,31,31,32,32,33,33,34,34,35,35,36,36,37,37,38,38,39,39,41,41,42,42,43,43,44,44,45,45,46,46,47,47,48,48,49,49,50,50,52,52],"right_children":[2,4,6,8,10,12,14,-1,16,18,20,22,24,26,28,-1,-1,30,32,34,36,38,40,42,44,46,48,50,52,-1,54,56,58,60,62,64,66,68,70,72,-1,74,76,78,80,82,84,86,88,90,92,-1,94,-1,-1,-1,-1,-1,-1,-1,-1,-1,-1,-1,-1,-1,-1,-1,-1,-1,-1,-1,-1,-1,-1,-1,-1,-1,-1,-1,-1,-1,-1,-1,-1,-1,-1,-1,-1,-1,-1,-1,-1,-1,-1],"split_conditions":[7.9E1,2.68E1,8.7E1,2.5E1,2.98E1,1E-1,2.7E0,-3.761171E-2,7.7E1,3E-1,4E-1,2.91E1,8.1E1,2.62E1,4.3E0,-2.6601104E-2,-1.2891628E-1,6.7E1,1E0,6.7E1,5E-1,2.78E1,2.95E1,4E-1,3.9E0,2.6E1,9.1E1,9.3E1,4.6E0,-1.1851956E-1,2.75E1,2.8E1,7.8E1,6.5E1,3.1E1,2.99E1,7.3E1,2.74E1,8.3E1,8.2E1,9.071793E-2,2.85E1,2.3E0,1.7E0,4.6E0,8.9E1,2.61E1,3E-1,2.71E1,2.58E1,3.8E0,-9.805777E-2,5.7E0,9.939738E-2,3.63906E-2,-8.23742E-2,1.044892E-1,4.123104E-3,1.515304E-1,7.019439E-2,1.6077612E-1,7.136911E-2,2.988041E-2,-1.0191438E-1,-2.5177995E-2,1.2103263E-1,4.010533E-3,-2.1938434E-2,-5.237967E-2,5.048694E-4,-4.272226E-2,-2.8546497E-3,5.612306E-2,1.6066125E-2,-3.0027647E-2,8.427456E-2,-4.174432E-2,-2.68651E-4,-5.3014316E-2,1.020566E-1,2.0214576E-2,7.5772395E-3,-4.4635262E-2,4.4327393E-2,-3.855609E-2,-6.2553406E-2,-1.81269E-2,-9.55419E-2,2.1788241E-2,-2.3359723E-2,5.3015966E-2,2.751077E-1,8.024694E-2,3.644168E-2,-2.8250862E-2],"split_indices":[1,0,1,0,0,2,2,0,1,2,2,0,1,0,2,0,0,1,2,1,2,0,0,2,2,0,1,1,2,0,0,0,1,1,0,0,1,0,1,1,0,0,2,2,2,1,0,2,0,0,2,0,2,0,0,0,0,0,0,0,0,0,0,0,0,0,0,0,0,0,0,0,0,0,0,0,0,0,0,0,0,0,0,0,0,0,0,0,0,0,0,0,0,0,0],"split_type":[0,0,0,0,0,0,0,0,0,0,0,0,0,0,0,0,0,0,0,0,0,0,0,0,0,0,0,0,0,0,0,0,0,0,0,0,0,0,0,0,0,0,0,0,0,0,0,0,0,0,0,0,0,0,0,0,0,0,0,0,0,0,0,0,0,0,0,0,0,0,0,0,0,0,0,0,0,0,0,0,0,0,0,0,0,0,0,0,0,0,0,0,0,0,0],"sum_hessian":[1.64E3,5.19E2,1.121E3,7E0,5.12E2,6.03E2,5.18E2,2E0,5E0,3.19E2,1.93E2,3.28E2,2.75E2,4.72E2,4.6E1,1E0,4E0,2.77E2,4.2E1,1.81E2,1.2E1,3.18E2,1E1,6.2E1,2.13E2,2.16E2,2.56E2,1.9E1,2.7E1,1E0,2.76E2,2.8E1,1.4E1,2.2E1,1.59E2,2E0,1E1,1.85E2,1.33E2,8E0,2E0,3.9E1,2.3E1,2E2,1.3E1,1.73E2,4.3E1,2.06E2,5E1,1.5E1,4E0,2E0,2.5E1,5E0,2.71E2,1E0,2.7E1,1.1E1,3E0,1.5E1,7E0,1.47E2,1.2E1,1E0,1E0,3E0,7E0,1.23E2,6.2E1,8.8E1,4.5E1,6E0,2E0,2.3E1,1.6E1,1.9E1,4E0,1.78E2,2.2E1,3E0,1E1,1.8E1,1.55E2,2.5E1,1.8E1,1.31E2,7.5E1,4.6E1,4E0,8E0,7E0,2E0,2E0,9E0,1.6E1],"tree_param":{"num_deleted":"0","num_feature":"3","num_nodes":"95","size_leaf_vector":"1"}},{"base_weights":[5.3787796E-4,1.1948581E-1,-5.4589983E-2,-2.605716E-1,1.2517971E-1,-2.6081579E-2,-8.766221E-2,-3.0089369E-2,-2.9727986E-1,8.3044544E-2,1.5410823E-1,-4.6395306E-2,1.842515E-2,-1.0110291E-1,4.9467824E-2,-2.2610942E-2,-9.797638E-2,9.852824E-2,-4.7801726E-2,2.1086404E-1,1.3349572E-1,-6.0048692E-2,1.6300682E-2,-1.3239343E-2,1.0981153E-1,-7.57387E-2,-1.4712512E-1,-4.2058066E-2,1.7513068E-1,1.358554E-2,1.3329141E-1,1.23599164E-1,-8.742882E-2,1.7828007E-1,2.871825E-1,1.0780694E-1,1.7376237E-1,5.845451E-2,-7.083637E-2,1.4606923E-1,-1.8575942E-2,-4.9902838E-2,1.04688905E-1,1.4636217E-1,-6.889824E-2,-6.8654805E-2,-3.3191743E-1,-1.5571523E-1,4.8701193E-2,-2.7388707E-1,4.8260506E-2,-1.7178091E-1,3.7514314E-1,-3.698591E-2,3.381512E-2,3.327155E-2,1.0549279E-1,-3.8808666E-2,2.4305137E-2,-2.712077E-2,6.330613E-2,9.242572E-2,1.563009E-2,1.7025437E-2,4.205256E-2,8.7497085E-2,3.7827604E-2,-1.4314702E-1,4.1582394E-2,-1.363735E-2,-2.8084958E-2,1.04526274E-1,-3.0551597E-3,-9.518793E-3,7.257434E-2,3.227163E-2,-2.1704433E-2,-1.1991931E-2,1.2323938E-1,8.357757E-3,8.887048E-2,-6.1762873E-2,8.210495E-2,-1.780221E-2,-7.2500035E-2,-2.678586E-2,-1.378917E-1,-5.791879E-2,-2.3026068E-2,-5.0687946E-2,-1.1773376E-1,2.5498569E-2,-1.0296507E-1,-2.5263274E-2,-1.1771565E-1,1.3737568E-1,-1.6024733E-2],"categories":[],"categories_nodes":[],"categories_segments":[],"categories_sizes":[],"default_left":[0,0,0,0,0,0,0,0,0,0,0,0,0,0,0,0,0,0,0,0,0,0,0,0,0,0,0,0,0,0,0,0,0,0,0,0,0,0,0,0,0,0,0,0,0,0,0,0,0,0,0,0,0,0,0,0,0,0,0,0,0,0,0,0,0,0,0,0,0,0,0,0,0,0,0,0,0,0,0,0,0,0,0,0,0,0,0,0,0,0,0,0,0,0,0,0,0],"id":3,"left_children":[1,3,5,7,9,11,13,-1,15,17,19,21,23,25,27,-1,-1,29,31,33,35,37,39,41,43,45,47,49,51,53,55,-1,57,59,61,63,65,67,69,71,73,75,77,79,81,83,85,87,-1,89,91,93,95,-1,-1,-1,-1,-1,-1,-1,-1,-1,-1,-1,-1,-1,-1,-1,-1,-1,-1,-1,-1,-1,-1,-1,-1,-1,-1,-1,-1,-1,-1,-1,-1,-1,-1,-1,-1,-1,-1,-1,-1,-1,-1,-1,-1],"loss_changes":[1.0767125E1,1.1579041E0,1.0555766E0,1.7250419E-2,6.125021E-1,5.469297E-1,9.6158195E-1,0E0,1.4407694E-2,4.3219244E-1,3.2632446E-1,3.5622406E-1,5.5125743E-1,5.40998E-1,5.479317E-1,0E0,0E0,5.562829E-1,4.550918E-1,1.4525509E-1,2.1400738E-1,4.4006634E-1,3.4215504E-1,6.1918426E-1,3.3014995E-1,5.343386E-1,4.692166E-1,5.9949493E-1,1.4521753E0,7.737224E-1,6.160009E-1,0E0,1.6587776E-1,5.29289E-1,9.2056036E-2,2.234056E-1,4.4655108E-1,1.3111396E0,1.7669821E-1,5.094375E-1,2.1325532E-1,3.9305058E-1,1.5220206E0,7.199221E-1,4.786799E-1,4.6909487E-1,2.0687449E-1,4.6587086E-1,0E0,3.321284E-2,3.3116883E-1,1.2150361E-1,4.8562598E-1,0E0,0E0,0E0,0E0,0E0,0E0,0E0,0E0,0E0,0E0,0E0,0E0,0E0,0E0,0E0,0E0,0E0,0E0,0E0,0E0,0E0,0E0,0E0,0E0,0E0,0E0,0E0,0E0,0E0,0E0,0E0,0E0,0E0,0E0,0E0,0E0,0E0,0E0,0E0,0E0,0E0,0E0,0E0,0E0],"parents":[2147483647,0,0,1,1,2,2,3,3,4,4,5,5,6,6,8,8,9,9,10,10,11,11,12,12,13,13,14,14,17,17,18,18,19,19,20,20,21,21,22,22,23,23,24,24,25,25,26,26,27,27,28,28,29,29,30,30,32,32,33,33,34,34,35,35,36,36,37,37,38,38,39,39,40,40,41,41,42,42,43,43,44,44,45,45,46,46,47,47,49,49,50,50,51,51,52,52],"right_children":[2,4,6,8,10,12,14,-1,16,18,20,22,24,26,28,-1,-1,30,32,34,36,38,40,42,44,46,48,50,52,54,56,-1,58,60,62,64,66,68,70,72,74,76,78,80,82,84,86,88,-1,90,92,94,96,-1,-1,-1,-1,-1,-1,-1,-1,-1,-1,-1,-1,-1,-1,-1,-1,-1,-1,-1,-1,-1,-1,-1,-1,-1,-1,-1,-1,-1,-1,-1,-1,-1,-1,-1,-1,-1,-1,-1,-1,-1,-1,-1,-1],"split_conditions":[7.9E1,2.68E1,8.7E1,2.5E1,2.93E1,2E-1,2.7E0,-3.0089369E-2,7.7E1,2.92E1,7.1E1,2.84E1,2.81E1,2.67E1,9.1E1,-2.2610942E-2,-9.797638E-2,7.6E1,7.2E1,7E1,1E-1,2.65E1,2.85E1,8.6E1,1.8E0,2E0,2.81E1,2.58E1,2.49E1,2.87E1,7E-1,1.23599164E-1,2E-1,3E1,3.08E1,2.97E1,2.97E1,8.2E1,8.3E1,8E1,2.96E1,2.67E1,2.71E1,4E-1,4E0,9.7E1,9E1,3E-1,4.8701193E-2,2.56E1,7.6E0,9.2E0,2.59E1,-3.698591E-2,3.381512E-2,3.327155E-2,1.0549279E-1,-3.8808666E-2,2.4305137E-2,-2.712077E-2,6.330613E-2,9.242572E-2,1.563009E-2,1.7025437E-2,4.205256E-2,8.7497085E-2,3.7827604E-2,-1.4314702E-1,4.1582394E-2,-1.363735E-2,-2.8084958E-2,1.04526274E-1,-3.0551597E-3,-9.518793E-3,7.257434E-2,3.227163E-2,-2.1704433E-2,-1.1991931E-2,1.2323938E-1,8.357757E-3,8.887048E-2,-6.1762873E-2,8.210495E-2,-1.780221E-2,-7.2500035E-2,-2.678586E-2,-1.378917E-1,-5.791879E-2,-2.3026068E-2,-5.0687946E-2,-1.1773376E-1,2.5498569E-2,-1.0296507E-1,-2.5263274E-2,-1.1771565E-1,1.3737568E-1,-1.6024733E-2],"split_indices":[1,0,1,0,0,2,2,0,1,0,1,0,0,0,1,0,0,1,1,1,2,0,0,1,2,2,0,0,0,0,2,0,2,0,0,0,0,1,1,1,0,0,0,2,2,1,1,2,0,0,2,2,0,0,0,0,0,0,0,0,0,0,0,0,0,0,0,0,0,0,0,0,0,0,0,0,0,0,0,0,0,0,0,0,0,0,0,0,0,0,0,0,0,0,0,0,0],"split_type":[0,0,0,0,0,0,0,0,0,0,0,0,0,0,0,0,0,0,0,0,0,0,0,0,0,0,0,0,0,0,0,0,0,0,0,0,0,0,0,0,0,0,0,0,0,0,0,0,0,0,0,0,0,0,0,0,0,0,0,0,0,0,0,0,0,0,0,0,0,0,0,0,0,0,0,0,0,0,0,0,0,0,0,0,0,0,0,0,0,0,0,0,0,0,0,0,0],"sum_hessian":[1.64E3,5.19E2,1.121E3,7E0,5.12E2,6.03E2,5.18E2,2E0,5E0,2.1E2,3.02E2,4.14E2,1.89E2,4.72E2,4.6E1,1E0,4E0,1.88E2,2.2E1,7.8E1,2.24E2,3.4E2,7.4E1,1.41E2,4.8E1,3.06E2,1.66E2,2.7E1,1.9E1,5.5E1,1.33E2,1E0,2.1E1,5.7E1,2.1E1,1.39E2,8.5E1,2.8E1,3.12E2,1.5E1,5.9E1,1.08E2,3.3E1,4E1,8E0,2.99E2,7E0,1.62E2,4E0,7E0,2E1,7E0,1.2E1,2.3E1,3.2E1,1.22E2,1.1E1,1.7E1,4E0,6E0,5.1E1,1.9E1,2E0,5.5E1,8.4E1,2.3E1,6.2E1,3E0,2.5E1,1.49E2,1.63E2,6E0,9E0,5.7E1,2E0,1.3E1,9.5E1,2.3E1,1E1,2.3E1,1.7E1,6E0,2E0,2.85E2,1.4E1,3E0,4E0,1.09E2,5.3E1,5E0,2E0,1.9E1,1E0,6E0,1E0,1E1,2E0],"tree_param":{"num_deleted":"0","num_feature":"3","num_nodes":"97","size_leaf_vector":"1"}},{"base_weights":[4.5484907E-4,9.3500584E-2,-3.619513E-2,-4.5203287E-2,1.0217383E-1,-1.6534522E-2,-6.842614E-2,-2.0619752E-1,-1.2394346E-3,1.50408E-1,9.1109835E-2,-4.2558614E-2,1.4172005E-2,-3.514388E-2,-1.05661705E-1,-2.4071492E-2,-7.473526E-2,1.3151285E-1,-4.114815E-2,1.6390401E-1,8.455962E-3,1.3631566E-1,7.564651E-2,-5.1865686E-2,1.0424982E-1,-3.0334133E-1,1.9867511E-2,-9.2108846E-2,1.6346456E-3,-1.1246291E-1,4.3296903E-2,-2.4934003E-1,4.8474134E-3,2.4404381E-1,1.3521793E-1,-4.5824032E-2,3.425919E-2,1.5222077E-1,-2.436996E-1,-1.4729388E-2,9.634754E-2,-4.7730733E-2,-7.0522025E-2,7.663133E-2,4.811279E-2,-1.2845433E-1,-1.9273718E-1,8.81934E-3,1.13367155E-1,-2.6058763E-1,-3.6233902E-2,3.7869386E-2,-9.4428286E-2,-1.0133206E-1,-1.23849325E-1,-1.16029255E-1,2.443986E-2,4.0161807E-2,-5.678893E-2,4.3727953E-2,1.1330017E-1,1.380431E-2,5.5049192E-2,-1.8397326E-2,-2.9646517E-3,3.665969E-2,9.4114274E-2,-1.0863574E-1,1.6733838E-2,-1.1035776E-2,4.704768E-2,2.223998E-2,3.934996E-2,-1.0613743E-2,-3.0752493E-2,1.7087663E-2,4.68022E-2,-1.8226964E-2,-7.814163E-2,2.7220056E-4,5.077656E-2,8.203858E-2,8.578842E-3,-1.3843478E-1,-1.1403118E-2,4.121216E-2,-2.9336097E-2,2.8929962E-2,-2.6695315E-2,-5.2470393E-2,6.065702E-2,-3.9275873E-2,-1.232586E-2],"categories":[],"categories_nodes":[],"categories_segments":[],"categories_sizes":[],"default_left":[0,0,0,0,0,0,0,0,0,0,0,0,0,0,0,0,0,0,0,0,0,0,0,0,0,0,0,0,0,0,0,0,0,0,0,0,0,0,0,0,0,0,0,0,0,0,0,0,0,0,0,0,0,0,0,0,0,0,0,0,0,0,0,0,0,0,0,0,0,0,0,0,0,0,0,0,0,0,0,0,0,0,0,0,0,0,0,0,0,0,0,0,0],"id":4,"left_children":[1,3,5,7,9,11,13,15,17,19,21,23,25,27,29,-1,-1,-1,31,33,35,37,39,41,43,45,47,49,51,53,-1,55,57,59,61,63,-1,65,67,69,71,73,-1,75,-1,-1,77,79,81,83,85,87,89,91,-1,-1,-1,-1,-1,-1,-1,-1,-1,-1,-1,-1,-1,-1,-1,-1,-1,-1,-1,-1,-1,-1,-1,-1,-1,-1,-1,-1,-1,-1,-1,-1,-1,-1,-1,-1,-1,-1,-1],"loss_changes":[5.5993977E0,5.628166E-1,7.453451E-1,1.9792639E-1,2.1950674E-1,5.863504E-1,5.4900694E-1,1.2448251E-2,4.2156166E-1,1.5187669E-1,2.3994184E-1,5.478505E-1,6.154572E-1,4.9668622E-1,3.7327242E-1,0E0,0E0,0E0,2.1187851E-1,1.3482046E-1,5.115009E-2,5.810728E-1,5.046842E-1,2.7210546E-1,2.4913073E-2,3.2037497E-4,3.419562E-1,8.660362E-1,5.082942E-1,6.4355445E-1,0E0,2.1335123E-1,5.0128144E-1,1.8134594E-1,2.3273122E-1,2.7366579E-3,0E0,3.8346887E-1,1.6205546E-1,1.9874828E-1,1.5966797E-1,2.446819E-1,0E0,1.922138E-2,0E0,0E0,2.8873086E-2,3.7811846E-1,4.6717888E-1,1.0107265E0,7.721461E-1,7.960593E-1,9.901543E-1,3.4934354E-1,0E0,0E0,0E0,0E0,0E0,0E0,0E0,0E0,0E0,0E0,0E0,0E0,0E0,0E0,0E0,0E0,0E0,0E0,0E0,0E0,0E0,0E0,0E0,0E0,0E0,0E0,0E0,0E0,0E0,0E0,0E0,0E0,0E0,0E0,0E0,0E0,0E0,0E0,0E0],"parents":[2147483647,0,0,1,1,2,2,3,3,4,4,5,5,6,6,7,7,8,8,9,9,10,10,11,11,12,12,13,13,14,14,18,18,19,19,20,20,21,21,22,22,23,23,24,24,25,25,26,26,27,27,28,28,29,29,31,31,32,32,33,33,34,34,35,35,37,37,38,38,39,39,40,40,41,41,43,43,46,46,47,47,48,48,49,49,50,50,51,51,52,52,53,53],"right_children":[2,4,6,8,10,12,14,16,18,20,22,24,26,28,30,-1,-1,-1,32,34,36,38,40,42,44,46,48,50,52,54,-1,56,58,60,62,64,-1,66,68,70,72,74,-1,76,-1,-1,78,80,82,84,86,88,90,92,-1,-1,-1,-1,-1,-1,-1,-1,-1,-1,-1,-1,-1,-1,-1,-1,-1,-1,-1,-1,-1,-1,-1,-1,-1,-1,-1,-1,-1,-1,-1,-1,-1,-1,-1,-1,-1,-1,-1],"split_conditions":[7.8E1,2.82E1,8.8E1,2.73E1,7.1E1,1E-1,2.62E1,2.5E1,2.74E1,3.12E1,2.9E1,2.91E1,2.58E1,9.1E1,2.78E1,-2.4071492E-2,-7.473526E-2,1.3151285E-1,6.9E1,6.7E1,3.14E1,1.2E0,2.93E1,2.9E1,2.95E1,2.55E1,8.7E1,2.55E1,9.5E1,2.77E1,4.3296903E-2,2.8E1,2.8E1,6.5E1,6.9E1,6.5E1,3.425919E-2,3E-1,1.7E0,7E-1,1E-1,8.6E1,-7.0522025E-2,8.2E1,4.811279E-2,-1.2845433E-1,7E-1,2.9E1,3E-1,3E-1,8.9E1,8E-1,5E-1,2.69E1,-1.23849325E-1,-1.16029255E-1,2.443986E-2,4.0161807E-2,-5.678893E-2,4.3727953E-2,1.1330017E-1,1.380431E-2,5.5049192E-2,-1.8397326E-2,-2.9646517E-3,3.665969E-2,9.4114274E-2,-1.0863574E-1,1.6733838E-2,-1.1035776E-2,4.704768E-2,2.223998E-2,3.934996E-2,-1.0613743E-2,-3.0752493E-2,1.7087663E-2,4.68022E-2,-1.8226964E-2,-7.814163E-2,2.7220056E-4,5.077656E-2,8.203858E-2,8.578842E-3,-1.3843478E-1,-1.1403118E-2,4.121216E-2,-2.9336097E-2,2.8929962E-2,-2.6695315E-2,-5.2470393E-2,6.065702E-2,-3.9275873E-2,-1.232586E-2],"split_indices":[1,0,1,0,1,2,0,0,0,0,0,0,0,1,0,0,0,0,1,1,0,2,0,0,0,0,1,0,1,0,0,0,0,1,1,1,0,2,2,2,2,1,0,1,0,0,2,0,2,2,1,2,2,0,0,0,0,0,0,0,0,0,0,0,0,0,0,0,0,0,0,0,0,0,0,0,0,0,0,0,0,0,0,0,0,0,0,0,0,0,0,0,0],"split_type":[0,0,0,0,0,0,0,0,0,0,0,0,0,0,0,0,0,0,0,0,0,0,0,0,0,0,0,0,0,0,0,0,0,0,0,0,0,0,0,0,0,0,0,0,0,0,0,0,0,0,0,0,0,0,0,0,0,0,0,0,0,0,0,0,0,0,0,0,0,0,0,0,0,0,0,0,0,0,0,0,0,0,0,0,0,0,0,0,0,0,0,0,0],"sum_hessian":[1.64E3,4.63E2,1.177E3,2.7E1,4.36E2,7.32E2,4.45E2,5E0,2.2E1,7.9E1,3.57E2,3.96E2,3.36E2,2.36E2,2.09E2,2E0,3E0,1E0,2.1E1,7.2E1,7E0,8.9E1,2.68E2,3.73E2,2.3E1,5E0,3.31E2,9.2E1,1.44E2,2.04E2,5E0,3E0,1.8E1,1.7E1,5.5E1,5E0,2E0,8.6E1,3E0,5E1,2.18E2,3.66E2,7E0,1.7E1,6E0,1E0,4E0,2.97E2,3.4E1,2.2E1,7E1,1.05E2,3.9E1,1.98E2,6E0,2E0,1E0,1.1E1,7E0,1.1E1,6E0,2E1,3.5E1,3E0,2E0,7.4E1,1.2E1,2E0,1E0,4.5E1,5E0,1.35E2,8.3E1,3E2,6.6E1,1.5E1,2E0,2E0,2E0,2.84E2,1.3E1,1.1E1,2.3E1,1.1E1,1.1E1,1.8E1,5.2E1,7.2E1,3.3E1,3.1E1,8E0,1.32E2,6.6E1],"tree_param":{"num_deleted":"0","num_feature":"3","num_nodes":"93","size_leaf_vector":"1"}},{"base_weights":[2.9220048E-4,6.609642E-2,-2.5627537E-2,-1.6080603E-1,6.891847E-2,-2.9532455E-2,5.9496902E-2,-9.977764E-3,-5.389907E-2,1.1178591E-1,6.7441784E-2,-1.3693564E-2,-5.6673653E-2,4.3036646E-1,1.962514E-2,-3.3722654E-2,7.23804E-2,-1.9654276E-2,5.9413176E-2,8.93708E-3,-6.822267E-2,4.4625394E-2,1.7055783E-1,4.4730626E-2,-2.677179E-1,-1.9743535E-1,2.5180515E-3,7.622466E-2,-2.7079372E-2,8.418969E-3,-3.6247924E-2,1.9163595E-1,-6.1180107E-2,-6.705591E-2,2.363575E-1,-2.6420635E-1,-5.1180445E-2,-2.5853429E-3,1.9121502E-1,-9.74108E-2,-1.4514542E-2,-9.28234E-2,2.0773888E-2,2.91173E-2,-4.1881837E-2,2.2147244E-2,1.1582683E-1,-5.6814987E-2,1.6898759E-2,5.4977653E-3,-5.5887904E-2,-4.03041E-2,-5.4926267E-3,7.392516E-2,-5.137956E-2,8.7782525E-2,-4.4123422E-2,-4.9199425E-3,-5.0202943E-2,-8.697114E-2,1.743314E-1,-2.1068543E-2,-1.21590145E-1,3.6821537E-2,-1.852291E-2,2.0317586E-2,-4.2897347E-2,8.319222E-2,-3.9240114E-2],"categories":[],"categories_nodes":[],"categories_segments":[],"categories_sizes":[],"default_left":[0,0,0,0,0,0,0,0,0,0,0,0,0,0,0,0,0,0,0,0,0,0,0,0,0,0,0,0,0,0,0,0,0,0,0,0,0,0,0,0,0,0,0,0,0,0,0,0,0,0,0,0,0,0,0,0,0,0,0,0,0,0,0,0,0,0,0,0,0],"id":5,"left_children":[1,3,5,7,9,11,13,-1,-1,-1,15,17,19,21,23,25,27,29,31,33,35,-1,-1,37,39,41,43,45,47,49,51,53,55,57,59,61,63,65,67,-1,-1,-1,-1,-1,-1,-1,-1,-1,-1,-1,-1,-1,-1,-1,-1,-1,-1,-1,-1,-1,-1,-1,-1,-1,-1,-1,-1,-1,-1],"loss_changes":[2.8006296E0,3.081951E-1,3.9332896E-1,8.455828E-3,1.8071795E-1,4.8370618E-1,7.604896E-1,0E0,0E0,0E0,2.3126316E-1,3.1187046E-1,3.1507146E-1,1.0997021E-1,3.5824177E-1,1.3102457E-1,1.6915107E-1,3.0775797E-1,8.7276393E-1,1.1046376E0,1.1654971E0,0E0,0E0,3.1239164E-1,3.4285545E-2,1.4087333E-1,2.688408E-1,2.846527E-1,2.4080591E-1,4.7794673E-1,7.278637E-1,5.5908734E-1,9.243379E-1,2.4110328E-1,3.0712976E0,7.3787224E-1,6.064515E-1,3.5520482E-1,3.4122565E-1,0E0,0E0,0E0,0E0,0E0,0E0,0E0,0E0,0E0,0E0,0E0,0E0,0E0,0E0,0E0,0E0,0E0,0E0,0E0,0E0,0E0,0E0,0E0,0E0,0E0,0E0,0E0,0E0,0E0,0E0],"parents":[2147483647,0,0,1,1,2,2,3,3,4,4,5,5,6,6,10,10,11,11,12,12,13,13,14,14,15,15,16,16,17,17,18,18,19,19,20,20,23,23,24,24,25,25,26,26,27,27,28,28,29,29,30,30,31,31,32,32,33,33,34,34,35,35,36,36,37,37,38,38],"right_children":[2,4,6,8,10,12,14,-1,-1,-1,16,18,20,22,24,26,28,30,32,34,36,-1,-1,38,40,42,44,46,48,50,52,54,56,58,60,62,64,66,68,-1,-1,-1,-1,-1,-1,-1,-1,-1,-1,-1,-1,-1,-1,-1,-1,-1,-1,-1,-1,-1,-1,-1,-1,-1,-1,-1,-1,-1,-1],"split_conditions":[7.8E1,2.73E1,3.5E0,2.49E1,2.74E1,8.8E1,3.8E0,-9.977764E-3,-5.389907E-2,1.1178591E-1,2.82E1,1.1E0,2.53E1,2.56E1,9.5E1,6.9E1,1E0,2.74E1,8.4E1,5E-1,2.55E1,4.4625394E-2,1.7055783E-1,7E0,2.46E1,2.8E1,2.8E1,9E-1,1.4E0,7E-1,2.76E1,3E0,1.3E0,9.5E1,9.3E1,2.54E1,2.56E1,5.7E0,1.29E1,-9.74108E-2,-1.4514542E-2,-9.28234E-2,2.0773888E-2,2.91173E-2,-4.1881837E-2,2.2147244E-2,1.1582683E-1,-5.6814987E-2,1.6898759E-2,5.4977653E-3,-5.5887904E-2,-4.03041E-2,-5.4926267E-3,7.392516E-2,-5.137956E-2,8.7782525E-2,-4.4123422E-2,-4.9199425E-3,-5.0202943E-2,-8.697114E-2,1.743314E-1,-2.1068543E-2,-1.21590145E-1,3.6821537E-2,-1.852291E-2,2.0317586E-2,-4.2897347E-2,8.319222E-2,-3.9240114E-2],"split_indices":[1,0,2,0,0,1,2,0,0,0,0,2,0,0,1,1,2,0,1,2,0,0,0,2,0,0,0,2,2,2,0,2,2,1,1,0,0,2,2,0,0,0,0,0,0,0,0,0,0,0,0,0,0,0,0,0,0,0,0,0,0,0,0,0,0,0,0,0,0],"split_type":[0,0,0,0,0,0,0,0,0,0,0,0,0,0,0,0,0,0,0,0,0,0,0,0,0,0,0,0,0,0,0,0,0,0,0,0,0,0,0,0,0,0,0,0,0,0,0,0,0,0,0,0,0,0,0,0,0,0,0,0,0,0,0,0,0,0,0,0,0],"sum_hessian":[1.64E3,4.63E2,1.177E3,5E0,4.58E2,1.126E3,5.1E1,1E0,4E0,1E0,4.57E2,7.12E2,4.14E2,4E0,4.7E1,2.1E1,4.36E2,6.59E2,5.3E1,6.2E1,3.52E2,2E0,2E0,4.4E1,3E0,3E0,1.8E1,4.2E2,1.6E1,2.45E2,4.14E2,2.5E1,2.8E1,4.7E1,1.5E1,2.7E1,3.25E2,3.4E1,1E1,2E0,1E0,2E0,1E0,1.1E1,7E0,4.18E2,2E0,5E0,1.1E1,2.34E2,1.1E1,6.3E1,3.51E2,2.2E1,3E0,5E0,2.3E1,3.2E1,1.5E1,6E0,9E0,1.2E1,1.5E1,1.8E1,3.07E2,2.3E1,1.1E1,8E0,2E0],"tree_param":{"num_deleted":"0","num_feature":"3","num_nodes":"69","size_leaf_vector":"1"}},{"base_weights":[2.4333109E-4,-1.9263167E-2,4.5052953E-2,-2.2351995E-2,4.3499324E-2,7.334692E-2,3.0813158E-2,5.317864E-4,-3.240586E-2,2.5430167E-1,1.1851079E-2,-9.224033E-2,7.9062305E-2,8.236805E-3,6.386413E-2,-1.2713245E-1,9.941228E-3,-2.50897E-2,-1.5973754E-1,1.0672591E-1,1.7096344E-1,3.1786382E-2,-2.1538384E-1,2.670411E-2,-6.1536234E-2,1.03392564E-1,7.524842E-2,8.0636926E-2,-6.1191283E-3,9.3867294E-2,5.690808E-3,-2.929292E-1,4.9258664E-2,2.886183E-1,5.384973E-3,-7.5803413E-3,-4.5769215E-2,-2.832216E-1,-9.8874435E-2,1.9548655E-2,4.3628216E-2,-7.90235E-3,1.300896E-1,-2.3123385E-2,-9.454524E-2,8.047093E-2,-2.1314885E-2,1.9022012E-1,-2.125018E-2,-2.4191655E-2,4.0538207E-2,6.946611E-2,3.030483E-1,8.4823854E-2,-3.7888307E-2,-1.9856399E-2,-1.1940789E-1,8.402768E-2,-1.7642166E-2,1.3056837E-1,-4.4673026E-2,-1.0006751E-2,8.1228325E-3,-1.0168092E-2,5.9195342E-3,-8.882177E-3,-3.4887146E-2,-1.5297562E-1,-2.3338828E-2,-3.5756316E-2,7.048462E-2,2.1139188E-2,-1.2342293E-2,1.44762825E-2,-4.2566404E-2,-5.9812423E-2,5.2247856E-2,4.7591258E-2,2.083579E-2,-1.8069124E-2,2.2977889E-2,1.9033689E-2,1.6640465E-1,-4.4523925E-2,1.6409706E-2,1.9681923E-2,-1.4125827E-2,-4.667439E-3,2.5933554E-2,-1.177324E-2,2.4575144E-2,1.2661786E-1,1.4630821E-2,9.164876E-2,1.0510359E-2,-4.8115697E-2,1.3568462E-3],"categories":[],"categories_nodes":[],"categories_segments":[],"categories_sizes":[],"default_left":[0,0,0,0,0,0,0,0,0,0,0,0,0,0,0,0,0,0,0,0,0,0,0,0,0,0,0,0,0,0,0,0,0,0,0,0,0,0,0,0,0,0,0,0,0,0,0,0,0,0,0,0,0,0,0,0,0,0,0,0,0,0,0,0,0,0,0,0,0,0,0,0,0,0,0,0,0,0,0,0,0,0,0,0,0,0,0,0,0,0,0,0,0,0,0,0,0],"id":6,"left_children":[1,3,5,7,9,11,13,15,17,19,21,23,25,27,29,31,33,35,37,39,-1,41,43,-1,-1,-1,45,47,49,51,53,55,57,59,61,63,65,67,69,71,-1,73,75,-1,-1,77,79,81,83,85,87,89,91,93,95,-1,-1,-1,-1,-1,-1,-1,-1,-1,-1,-1,-1,-1,-1,-1,-1,-1,-1,-1,-1,-1,-1,-1,-1,-1,-1,-1,-1,-1,-1,-1,-1,-1,-1,-1,-1,-1,-1,-1,-1,-1,-1],"loss_changes":[1.4352312E0,2.2275105E-1,1.9838428E-1,2.510242E-1,3.5724854E-1,1.6439414E-1,2.479487E-1,4.0248108E-1,7.0212924E-1,2.6517928E-1,2.2428612E-1,1.4101876E-1,1.3714147E-1,2.0732832E-1,2.350927E-1,6.8706596E-1,3.945996E-1,2.5963014E-1,2.8013742E-1,1.7400414E-2,0E0,1.7659685E-1,3.0902252E-2,0E0,0E0,0E0,8.240372E-2,3.72491E-1,1.4179774E-1,4.3322802E-1,1.6529559E-1,2.596135E-1,3.1581426E-1,3.8553914E-1,2.5972545E-1,2.809509E-1,3.7153864E-1,5.65732E-1,2.2465324E-1,1.2169047E-2,0E0,2.5514475E-1,2.2347614E-1,0E0,0E0,1.1989403E-1,3.890444E-2,7.040796E-1,1.819606E-1,2.518501E-1,1.2237993E-1,1.1285281E-1,2.5177473E-1,1.7607799E-1,1.6177818E-1,0E0,0E0,0E0,0E0,0E0,0E0,0E0,0E0,0E0,0E0,0E0,0E0,0E0,0E0,0E0,0E0,0E0,0E0,0E0,0E0,0E0,0E0,0E0,0E0,0E0,0E0,0E0,0E0,0E0,0E0,0E0,0E0,0E0,0E0,0E0,0E0,0E0,0E0,0E0,0E0,0E0,0E0],"parents":[2147483647,0,0,1,1,2,2,3,3,4,4,5,5,6,6,7,7,8,8,9,9,10,10,11,11,12,12,13,13,14,14,15,15,16,16,17,17,18,18,19,19,21,21,22,22,26,26,27,27,28,28,29,29,30,30,31,31,32,32,33,33,34,34,35,35,36,36,37,37,38,38,39,39,41,41,42,42,45,45,46,46,47,47,48,48,49,49,50,50,51,51,52,52,53,53,54,54],"right_children":[2,4,6,8,10,12,14,16,18,20,22,24,26,28,30,32,34,36,38,40,-1,42,44,-1,-1,-1,46,48,50,52,54,56,58,60,62,64,66,68,70,72,-1,74,76,-1,-1,78,80,82,84,86,88,90,92,94,96,-1,-1,-1,-1,-1,-1,-1,-1,-1,-1,-1,-1,-1,-1,-1,-1,-1,-1,-1,-1,-1,-1,-1,-1,-1,-1,-1,-1,-1,-1,-1,-1,-1,-1,-1,-1,-1,-1,-1,-1,-1,-1],"split_conditions":[2.86E1,3.4E0,7.3E1,8.3E1,3.8E0,2.91E1,1E-1,2.69E1,2.8E1,9.3E1,9.5E1,2.9E1,2.93E1,2.88E1,2.97E1,8.2E1,2.7E1,8.9E1,8.4E1,3.5E0,1.7096344E-1,6.5E0,5.7E0,2.670411E-2,-6.1536234E-2,1.03392564E-1,3.12E1,7.8E1,2.97E1,2.95E1,7.4E1,7.8E1,2.64E1,2.4E0,2.78E1,1E-1,8E-1,2.81E1,2.84E1,2.55E1,4.3628216E-2,5.7E0,8.3E1,-2.3123385E-2,-9.454524E-2,6.7E1,3.14E1,7.7E1,7.9E1,7.5E1,7.5E1,2.87E1,7.6E1,2.98E1,2.98E1,-1.9856399E-2,-1.1940789E-1,8.402768E-2,-1.7642166E-2,1.3056837E-1,-4.4673026E-2,-1.0006751E-2,8.1228325E-3,-1.0168092E-2,5.9195342E-3,-8.882177E-3,-3.4887146E-2,-1.5297562E-1,-2.3338828E-2,-3.5756316E-2,7.048462E-2,2.1139188E-2,-1.2342293E-2,1.44762825E-2,-4.2566404E-2,-5.9812423E-2,5.2247856E-2,4.7591258E-2,2.083579E-2,-1.8069124E-2,2.2977889E-2,1.9033689E-2,1.6640465E-1,-4.4523925E-2,1.6409706E-2,1.9681923E-2,-1.4125827E-2,-4.667439E-3,2.5933554E-2,-1.177324E-2,2.4575144E-2,1.2661786E-1,1.4630821E-2,9.164876E-2,1.0510359E-2,-4.8115697E-2,1.3568462E-3],"split_indices":[0,2,1,1,2,0,2,0,0,1,1,0,0,0,0,1,0,1,1,2,0,2,2,0,0,0,0,1,0,0,1,1,0,2,0,2,2,0,0,0,0,2,1,0,0,1,0,1,1,1,1,0,1,0,0,0,0,0,0,0,0,0,0,0,0,0,0,0,0,0,0,0,0,0,0,0,0,0,0,0,0,0,0,0,0,0,0,0,0,0,0,0,0,0,0,0,0],"split_type":[0,0,0,0,0,0,0,0,0,0,0,0,0,0,0,0,0,0,0,0,0,0,0,0,0,0,0,0,0,0,0,0,0,0,0,0,0,0,0,0,0,0,0,0,0,0,0,0,0,0,0,0,0,0,0,0,0,0,0,0,0,0,0,0,0,0,0,0,0,0,0,0,0,0,0,0,0,0,0,0,0,0,0,0,0,0,0,0,0,0,0,0,0,0,0,0,0],"sum_hessian":[1.64E3,1.143E3,4.97E2,1.09E3,5.3E1,1.65E2,3.32E2,3.33E2,7.57E2,6E0,4.7E1,5E0,1.6E2,1.98E2,1.34E2,2.2E1,3.11E2,7.17E2,4E1,5E0,1E0,4.4E1,3E0,2E0,3E0,1E0,1.59E2,3.2E1,1.66E2,8.8E1,4.6E1,1.1E1,1.1E1,4E0,3.07E2,3.89E2,3.28E2,1.2E1,2.8E1,2E0,3E0,3.2E1,1.2E1,2E0,1E0,1.51E2,8E0,1.5E1,1.7E1,1.2E2,4.6E1,8E1,8E0,1.6E1,3E1,4E0,7E0,3E0,8E0,3E0,1E0,1.1E2,1.97E2,1.98E2,1.91E2,2.68E2,6E1,5E0,7E0,2.7E1,1E0,1E0,1E0,2.3E1,9E0,1E0,1.1E1,1.7E1,1.34E2,6E0,2E0,1.2E1,3E0,6E0,1.1E1,2.4E1,9.6E1,2.1E1,2.5E1,8E0,7.2E1,5E0,3E0,2E0,1.4E1,7E0,2.3E1],"tree_param":{"num_deleted":"0","num_feature":"3","num_nodes":"97","size_leaf_vector":"1"}},{"base_weights":[4.3059152E-4,-1.3578986E-2,3.261237E-2,-1.197753E-2,-1.2573302E-1,5.2197672E-2,2.2751192E-2,-1.1468048E-1,-1.086446E-2,7.5043544E-2,-2.537033E-1,-7.0373595E-2,5.6441337E-2,6.691124E-3,4.6256393E-2,-5.0964344E-2,-6.88115E-2,4.018663E-2,-1.4573969E-2,-1.6142611E-1,6.057499E-2,-1.2485947E-1,-9.5636785E-2,2.1363296E-2,-4.769059E-2,8.788367E-2,5.3132273E-2,6.1213255E-2,-4.1227774E-3,6.743803E-2,5.162314E-3,-6.2364828E-2,-5.364202E-3,-9.844898E-2,5.5677906E-2,-1.3084986E-2,-1.0933024E-1,2.1001108E-2,-9.364286E-2,-8.438328E-2,7.5121954E-2,6.1886035E-2,1.8871699E-2,-1.4496069E-1,9.464969E-2,-7.440759E-2,3.8173858E-3,4.878434E-2,2.2782809E-1,6.5386094E-2,-2.8030155E-2,2.931372E-2,-1.6802542E-2,-3.1935934E-3,-3.7782796E-2,7.4045055E-2,1.0066942E-2,-4.466995E-3,1.8913351E-2,3.1347126E-2,-8.617358E-2,1.5141072E-2,4.5126844E-2,2.5996655E-2,-2.1829452E-2,-6.3590676E-2,-8.889675E-3,7.6017685E-2,-4.9311095E-3,6.235512E-3,-7.571748E-2,-1.2146744E-3,7.029694E-2,1.6511122E-2,-3.9639685E-2,9.496338E-2,1.1338891E-2,7.3319025E-2,7.567468E-3,7.414722E-3,-2.8153246E-2],"categories":[],"categories_nodes":[],"categories_segments":[],"categories_sizes":[],"default_left":[0,0,0,0,0,0,0,0,0,0,0,0,0,0,0,0,0,0,0,0,0,0,0,0,0,0,0,0,0,0,0,0,0,0,0,0,0,0,0,0,0,0,0,0,0,0,0,0,0,0,0,0,0,0,0,0,0,0,0,0,0,0,0,0,0,0,0,0,0,0,0,0,0,0,0,0,0,0,0,0,0],"id":7,"left_children":[1,3,5,7,9,11,13,15,17,19,21,23,25,27,29,31,-1,33,35,37,-1,39,-1,-1,-1,-1,41,43,45,47,49,-1,51,53,55,57,59,-1,-1,-1,-1,61,63,65,67,69,71,73,75,77,79,-1,-1,-1,-1,-1,-1,-1,-1,-1,-1,-1,-1,-1,-1,-1,-1,-1,-1,-1,-1,-1,-1,-1,-1,-1,-1,-1,-1,-1,-1],"loss_changes":[7.402928E-1,2.039675E-1,9.499329E-2,1.2781641E-1,4.3013373E-1,9.031704E-2,1.2539637E-1,7.600236E-2,2.1230634E-1,2.4260604E-1,4.4055402E-2,8.658245E-2,1.1043489E-1,1.1758215E-1,1.17161244E-1,6.32844E-2,0E0,1.6870227E-1,1.4572676E-1,1.2649217E-1,0E0,3.639257E-1,0E0,0E0,0E0,0E0,4.681751E-2,2.4121326E-1,9.348222E-2,2.551616E-1,9.578464E-2,0E0,4.7234636E-2,1.7971665E-2,2.8346813E-1,1.4219987E-1,6.3868475E-1,0E0,0E0,0E0,0E0,1.2076935E-1,2.174956E-1,3.2358654E-2,5.155566E-1,2.9327294E-1,2.7474612E-1,9.890117E-2,1.397664E-1,1.1605292E-1,1.0993338E-1,0E0,0E0,0E0,0E0,0E0,0E0,0E0,0E0,0E0,0E0,0E0,0E0,0E0,0E0,0E0,0E0,0E0,0E0,0E0,0E0,0E0,0E0,0E0,0E0,0E0,0E0,0E0,0E0,0E0,0E0],"parents":[2147483647,0,0,1,1,2,2,3,3,4,4,5,5,6,6,7,7,8,8,9,9,10,10,11,11,12,12,13,13,14,14,15,15,17,17,18,18,19,19,21,21,26,26,27,27,28,28,29,29,30,30,32,32,33,33,34,34,35,35,36,36,41,41,42,42,43,43,44,44,45,45,46,46,47,47,48,48,49,49,50,50],"right_children":[2,4,6,8,10,12,14,16,18,20,22,24,26,28,30,32,-1,34,36,38,-1,40,-1,-1,-1,-1,42,44,46,48,50,-1,52,54,56,58,60,-1,-1,-1,-1,62,64,66,68,70,72,74,76,78,80,-1,-1,-1,-1,-1,-1,-1,-1,-1,-1,-1,-1,-1,-1,-1,-1,-1,-1,-1,-1,-1,-1,-1,-1,-1,-1,-1,-1,-1,-1],"split_conditions":[2.86E1,9.7E1,7.3E1,7.5E1,2.56E1,2.91E1,1E-1,2.84E1,7.9E1,2.48E1,2.61E1,2.9E1,2.93E1,2.88E1,2.97E1,2.75E1,-6.88115E-2,2.68E1,2.85E1,2.46E1,6.057499E-2,2.6E1,-9.5636785E-2,2.1363296E-2,-4.769059E-2,8.788367E-2,3.08E1,7.6E1,2.89E1,2.95E1,7.4E1,-6.2364828E-2,6.8E1,7.7E1,2.75E1,2.84E1,1E-1,2.1001108E-2,-9.364286E-2,-8.438328E-2,7.5121954E-2,3.07E1,6.8E1,2.87E1,7.8E1,8.1E1,8.2E1,2.7E0,7.6E1,2.98E1,2E-1,2.931372E-2,-1.6802542E-2,-3.1935934E-3,-3.7782796E-2,7.4045055E-2,1.0066942E-2,-4.466995E-3,1.8913351E-2,3.1347126E-2,-8.617358E-2,1.5141072E-2,4.5126844E-2,2.5996655E-2,-2.1829452E-2,-6.3590676E-2,-8.889675E-3,7.6017685E-2,-4.9311095E-3,6.235512E-3,-7.571748E-2,-1.2146744E-3,7.029694E-2,1.6511122E-2,-3.9639685E-2,9.496338E-2,1.1338891E-2,7.3319025E-2,7.567468E-3,7.414722E-3,-2.8153246E-2],"split_indices":[0,1,1,1,0,0,2,0,1,0,0,0,0,0,0,0,0,0,0,0,0,0,0,0,0,0,0,1,0,0,1,0,1,1,0,0,2,0,0,0,0,0,1,0,1,1,1,2,1,0,2,0,0,0,0,0,0,0,0,0,0,0,0,0,0,0,0,0,0,0,0,0,0,0,0,0,0,0,0,0,0],"split_type":[0,0,0,0,0,0,0,0,0,0,0,0,0,0,0,0,0,0,0,0,0,0,0,0,0,0,0,0,0,0,0,0,0,0,0,0,0,0,0,0,0,0,0,0,0,0,0,0,0,0,0,0,0,0,0,0,0,0,0,0,0,0,0,0,0,0,0,0,0,0,0,0,0,0,0,0,0,0,0,0,0],"sum_hessian":[1.64E3,1.143E3,4.97E2,1.128E3,1.5E1,1.65E2,3.32E2,1.1E1,1.117E3,6E0,9E0,5E0,1.6E2,1.98E2,1.34E2,8E0,3E0,7.5E1,1.042E3,2E0,4E0,4E0,5E0,2E0,3E0,1E0,1.59E2,3.2E1,1.66E2,8.8E1,4.6E1,1E0,7E0,7E0,6.8E1,1.027E3,1.5E1,1E0,1E0,3E0,1E0,1.26E2,3.3E1,4E0,2.8E1,1.6E1,1.5E2,8E1,8E0,1.6E1,3E1,2E0,5E0,2E0,5E0,6E0,6.2E1,1.004E3,2.3E1,7E0,8E0,1.13E2,1.3E1,1.9E1,1.4E1,2E0,2E0,1.1E1,1.7E1,1.1E1,5E0,1.46E2,4E0,7.8E1,2E0,5E0,3E0,2E0,1.4E1,1.7E1,1.3E1],"tree_param":{"num_deleted":"0","num_feature":"3","num_nodes":"81","size_leaf_vector":"1"}},{"base_weights":[3.2252728E-4,-1.2555294E-2,1.9289676E-2,-9.7899055E-3,-8.0704644E-2,1.8023344E-2,6.711857E-2,-1.7646795E-2,1.3491775E-2,2.4970738E-2,-1.586945E-1,2.0073516E-2,-2.5497398E-1,-8.452481E-2,-9.657115E-3,1.1829574E-1,-8.278196E-3,-7.8040466E-2,2.878057E-1,-2.8460053E-1,-3.005611E-2,1.5579664E-2,8.900169E-2,-3.342362E-1,9.311226E-3,-3.383205E-2,-3.0298382E-1,1.6590242E-1,-1.304493E-2,2.5820932E-1,-7.482767E-2,-2.4512744E-2,7.363735E-2,-1.2510338E-1,5.912696E-2,1.4634825E-1,1.15843385E-1,-4.2915344E-2,-1.13614954E-1,1.6548866E-1,-1.9337218E-1,3.539969E-2,5.3650304E-3,-4.7670566E-2,1.6442794E-1,-1.2591948E-1,-1.1662495E-2,3.2676246E-2,-1.5321606E-2,-6.525723E-2,-1.23991966E-1,6.2655486E-2,-4.598078E-2,-3.0462248E-3,-5.6424633E-2,1.2275665E-1,1.2773993E-2,-1.0944376E-1,5.809244E-2,2.696419E-2,-1.2784105E-2,-3.602105E-2,4.538418E-2,-6.655598E-3,-8.218024E-2,9.7280845E-2,-4.120311E-2,-1.9825934E-2,5.9554644E-2,5.9999358E-2,-1.0585964E-3,-7.67681E-2,-2.4752298E-2,-3.0947795E-2,1.3295465E-2,2.7481993E-3,-3.3288144E-2,-4.2006344E-2,3.425765E-2,8.954364E-2,1.8597372E-2],"categories":[],"categories_nodes":[],"categories_segments":[],"categories_sizes":[],"default_left":[0,0,0,0,0,0,0,0,0,0,0,0,0,0,0,0,0,0,0,0,0,0,0,0,0,0,0,0,0,0,0,0,0,0,0,0,0,0,0,0,0,0,0,0,0,0,0,0,0,0,0,0,0,0,0,0,0,0,0,0,0,0,0,0,0,0,0,0,0,0,0,0,0,0,0,0,0,0,0,0,0],"id":8,"left_children":[1,3,5,7,9,11,-1,13,15,17,19,21,23,25,27,29,31,33,35,37,39,41,43,45,-1,47,49,51,53,55,57,59,61,63,65,-1,67,-1,-1,69,71,73,75,77,79,-1,-1,-1,-1,-1,-1,-1,-1,-1,-1,-1,-1,-1,-1,-1,-1,-1,-1,-1,-1,-1,-1,-1,-1,-1,-1,-1,-1,-1,-1,-1,-1,-1,-1,-1,-1],"loss_changes":[4.0106553E-1,1.8352325E-1,1.6786891E-1,1.723673E-1,3.1714383E-1,3.750743E-1,0E0,3.7535483E-1,5.439951E-1,4.8273456E-1,3.4776568E-1,2.0212114E-1,1.2372333E-1,8.20321E-1,3.76865E-1,1.1271653E0,2.651177E-1,9.131848E-2,1.15469486E-1,9.2366755E-2,4.1522813E-1,1.24926865E-1,4.2018536E-1,8.469108E-2,0E0,1.5814817E-1,4.208994E-2,1.9650844E-1,3.113077E-1,7.639115E-1,1.4719785E0,3.4755427E-1,5.1448685E-1,1.4709643E-1,2.5290728E-1,0E0,7.328125E-2,0E0,0E0,3.5701632E-2,2.7406722E-2,2.6407757E-1,1.8160184E-1,2.402111E-1,3.385219E-1,0E0,0E0,0E0,0E0,0E0,0E0,0E0,0E0,0E0,0E0,0E0,0E0,0E0,0E0,0E0,0E0,0E0,0E0,0E0,0E0,0E0,0E0,0E0,0E0,0E0,0E0,0E0,0E0,0E0,0E0,0E0,0E0,0E0,0E0,0E0,0E0],"parents":[2147483647,0,0,1,1,2,2,3,3,4,4,5,5,7,7,8,8,9,9,10,10,11,11,12,12,13,13,14,14,15,15,16,16,17,17,18,18,19,19,20,20,21,21,22,22,23,23,25,25,26,26,27,27,28,28,29,29,30,30,31,31,32,32,33,33,34,34,36,36,39,39,40,40,41,41,42,42,43,43,44,44],"right_children":[2,4,6,8,10,12,-1,14,16,18,20,22,24,26,28,30,32,34,36,38,40,42,44,46,-1,48,50,52,54,56,58,60,62,64,66,-1,68,-1,-1,70,72,74,76,78,80,-1,-1,-1,-1,-1,-1,-1,-1,-1,-1,-1,-1,-1,-1,-1,-1,-1,-1,-1,-1,-1,-1,-1,-1,-1,-1,-1,-1,-1,-1,-1,-1,-1,-1,-1,-1],"split_conditions":[2.81E1,2.8E1,4E0,5E-1,8.2E1,3E0,6.711857E-2,2.55E1,7E-1,8.1E1,8.4E1,7E-1,3.4E0,2.54E1,2.56E1,2.68E1,2.73E1,2E-1,1E-1,8.3E1,8.5E1,7.4E1,7.6E1,2.93E1,9.311226E-3,8.8E1,1E-1,2E-1,9.7E1,6E-1,6E-1,2.53E1,1.2E0,1E-1,7.9E1,1.4634825E-1,3E-1,-4.2915344E-2,-1.13614954E-1,1E-1,8.6E1,2.91E1,5E-1,1.4E0,1E0,-1.2591948E-1,-1.1662495E-2,3.2676246E-2,-1.5321606E-2,-6.525723E-2,-1.23991966E-1,6.2655486E-2,-4.598078E-2,-3.0462248E-3,-5.6424633E-2,1.2275665E-1,1.2773993E-2,-1.0944376E-1,5.809244E-2,2.696419E-2,-1.2784105E-2,-3.602105E-2,4.538418E-2,-6.655598E-3,-8.218024E-2,9.7280845E-2,-4.120311E-2,-1.9825934E-2,5.9554644E-2,5.9999358E-2,-1.0585964E-3,-7.67681E-2,-2.4752298E-2,-3.0947795E-2,1.3295465E-2,2.7481993E-3,-3.3288144E-2,-4.2006344E-2,3.425765E-2,8.954364E-2,1.8597372E-2],"split_indices":[0,0,2,2,1,2,0,0,2,1,1,2,2,0,0,0,0,2,2,1,1,1,1,0,0,1,2,2,1,2,2,0,2,2,1,0,2,0,0,2,1,0,2,2,2,0,0,0,0,0,0,0,0,0,0,0,0,0,0,0,0,0,0,0,0,0,0,0,0,0,0,0,0,0,0,0,0,0,0,0,0],"split_type":[0,0,0,0,0,0,0,0,0,0,0,0,0,0,0,0,0,0,0,0,0,0,0,0,0,0,0,0,0,0,0,0,0,0,0,0,0,0,0,0,0,0,0,0,0,0,0,0,0,0,0,0,0,0,0,0,0,0,0,0,0,0,0,0,0,0,0,0,0,0,0,0,0,0,0,0,0,0,0,0,0],"sum_hessian":[1.64E3,9.77E2,6.63E2,9.4E2,3.7E1,6.6E2,3E0,7.03E2,2.37E2,1.6E1,2.1E1,6.56E2,4E0,7.4E1,6.29E2,4E1,1.97E2,1.2E1,4E0,1E1,1.1E1,6.17E2,3.9E1,3E0,1E0,6.1E1,1.3E1,1.1E1,6.18E2,2.3E1,1.7E1,1.65E2,3.2E1,9E0,3E0,1E0,3E0,5E0,5E0,5E0,6E0,2.09E2,4.08E2,1.4E1,2.5E1,2E0,1E0,6E0,5.5E1,9E0,4E0,1E1,1E0,6.09E2,9E0,1.3E1,1E1,8E0,9E0,2.2E1,1.43E2,9E0,2.3E1,6E0,3E0,1E0,2E0,1E0,2E0,4E0,1E0,3E0,3E0,1.2E1,1.97E2,3.96E2,1.2E1,9E0,5E0,1E1,1.5E1],"tree_param":{"num_deleted":"0","num_feature":"3","num_nodes":"81","size_leaf_vector":"1"}},{"base_weights":[1.2722294E-4,-6.600675E-3,1.97019E-2,-1.3278089E-2,8.575062E-3,1.7549789E-2,1.2834193E-1,1.2943283E-1,-1.43113015E-2,8.105886E-2,-6.0885744E-3,2.0015806E-2,-6.652428E-2,5.276611E-2,1.1047519E-2,-7.465157E-2,-9.45666E-3,1.6548704E-2,1.6645949E-1,8.109987E-2,-1.8476387E-2,7.172247E-2,1.6688693E-2,-1.9826142E-1,5.5896733E-2,-1.3639345E-2,-1.6095206E-1,4.338704E-2,-2.3892144E-2,-3.5809278E-3,5.5054024E-2,2.2176385E-2,2.3736903E-1,-6.5954655E-2,2.393654E-1,-5.958285E-4,-1.0945532E-1,3.2264173E-2,2.609479E-1,1.1542419E-2,7.029682E-2,-1.0979929E-1,-9.608582E-2,1.6284456E-2,4.403556E-2,-1.2659874E-2,1.564634E-1,-1.7918289E-2,-1.4652368E-1,-1.0405855E-2,2.4104739E-2,-2.570811E-2,-2.3672224E-3,-2.7733596E-2,1.1189337E-2,6.75952E-2,-4.5241144E-2,2.0085762E-1,5.1769264E-2,6.2192897E-3,-4.399332E-2,1.4698648E-1,1.570758E-2,-1.4661287E-2,7.495303E-3,-5.0140154E-2,5.345988E-2,3.3668382E-4,4.9301E-2,1.0213603E-1,3.3647062E-3,-1.17147975E-2,6.0573085E-3,2.8307544E-2,-6.0531776E-2,2.1934489E-2,-5.214198E-2,-1.9278964E-2,3.547596E-2],"categories":[],"categories_nodes":[],"categories_segments":[],"categories_sizes":[],"default_left":[0,0,0,0,0,0,0,0,0,0,0,0,0,0,0,0,0,0,0,0,0,0,0,0,0,0,0,0,0,0,0,0,0,0,0,0,0,0,0,0,0,0,0,0,0,0,0,0,0,0,0,0,0,0,0,0,0,0,0,0,0,0,0,0,0,0,0,0,0,0,0,0,0,0,0,0,0,0,0],"id":9,"left_children":[1,3,5,7,9,11,13,-1,15,17,19,21,23,-1,-1,25,27,29,31,33,35,37,39,41,43,45,47,49,51,53,-1,55,57,59,61,63,65,67,69,71,73,75,-1,77,-1,-1,-1,-1,-1,-1,-1,-1,-1,-1,-1,-1,-1,-1,-1,-1,-1,-1,-1,-1,-1,-1,-1,-1,-1,-1,-1,-1,-1,-1,-1,-1,-1,-1,-1],"loss_changes":[2.1624388E-1,1.2394485E-1,9.5945925E-2,3.962822E-1,3.980092E-1,8.695805E-2,2.8332382E-2,0E0,2.4769898E-1,3.443254E-1,3.3848155E-1,6.796068E-2,2.046109E-1,0E0,0E0,3.2952407E-1,6.006165E-1,1.2501185E-1,2.7097446E-1,9.2346E-1,4.4566542E-1,1.7077705E-1,1.0374791E-1,2.9600158E-2,2.2811776E-2,6.0283816E-1,8.3264965E-1,4.9047863E-1,6.104711E-1,1.2695852E-1,0E0,3.8537234E-1,3.885684E-1,1.4992753E-1,8.647237E-1,2.8524476E-1,7.7640116E-1,8.61883E-2,7.5601935E-2,1.5261763E-1,2.3507152E-1,7.124709E-2,0E0,5.687939E-2,0E0,0E0,0E0,0E0,0E0,0E0,0E0,0E0,0E0,0E0,0E0,0E0,0E0,0E0,0E0,0E0,0E0,0E0,0E0,0E0,0E0,0E0,0E0,0E0,0E0,0E0,0E0,0E0,0E0,0E0,0E0,0E0,0E0,0E0,0E0],"parents":[2147483647,0,0,1,1,2,2,3,3,4,4,5,5,6,6,8,8,9,9,10,10,11,11,12,12,15,15,16,16,17,17,18,18,19,19,20,20,21,21,22,22,23,23,24,24,25,25,26,26,27,27,28,28,29,29,31,31,32,32,33,33,34,34,35,35,36,36,37,37,38,38,39,39,40,40,41,41,43,43],"right_children":[2,4,6,8,10,12,14,-1,16,18,20,22,24,-1,-1,26,28,30,32,34,36,38,40,42,44,46,48,50,52,54,-1,56,58,60,62,64,66,68,70,72,74,76,-1,78,-1,-1,-1,-1,-1,-1,-1,-1,-1,-1,-1,-1,-1,-1,-1,-1,-1,-1,-1,-1,-1,-1,-1,-1,-1,-1,-1,-1,-1,-1,-1,-1,-1,-1,-1],"split_conditions":[2.89E1,3E-1,8.2E1,2.41E1,8.2E1,8E1,1E-1,1.2943283E-1,2.55E1,8E1,2.54E1,2.9E1,2.91E1,5.276611E-2,1.1047519E-2,2.52E1,2.66E1,2.88E1,2.78E1,2.49E1,9.1E1,3E-1,7.8E1,1E-1,1E-1,2E-1,1E-1,2.6E1,2.71E1,6E-1,5.5054024E-2,2.75E1,2.79E1,8E-1,1.1E0,8.6E1,2.5E0,7.9E1,6E-1,2.93E1,3E-1,2.9E1,-9.608582E-2,2.93E1,4.403556E-2,-1.2659874E-2,1.564634E-1,-1.7918289E-2,-1.4652368E-1,-1.0405855E-2,2.4104739E-2,-2.570811E-2,-2.3672224E-3,-2.7733596E-2,1.1189337E-2,6.75952E-2,-4.5241144E-2,2.0085762E-1,5.1769264E-2,6.2192897E-3,-4.399332E-2,1.4698648E-1,1.570758E-2,-1.4661287E-2,7.495303E-3,-5.0140154E-2,5.345988E-2,3.3668382E-4,4.9301E-2,1.0213603E-1,3.3647062E-3,-1.17147975E-2,6.0573085E-3,2.8307544E-2,-6.0531776E-2,2.1934489E-2,-5.214198E-2,-1.9278964E-2,3.547596E-2],"split_indices":[0,2,1,0,1,1,2,0,0,1,0,0,0,0,0,0,0,0,0,0,1,2,1,2,2,2,2,0,0,2,0,0,0,2,2,1,2,1,2,0,2,0,0,0,0,0,0,0,0,0,0,0,0,0,0,0,0,0,0,0,0,0,0,0,0,0,0,0,0,0,0,0,0,0,0,0,0,0,0],"split_type":[0,0,0,0,0,0,0,0,0,0,0,0,0,0,0,0,0,0,0,0,0,0,0,0,0,0,0,0,0,0,0,0,0,0,0,0,0,0,0,0,0,0,0,0,0,0,0,0,0,0,0,0,0,0,0,0,0,0,0,0,0,0,0,0,0,0,0,0,0,0,0,0,0,0,0,0,0,0,0],"sum_hessian":[1.64E3,1.221E3,4.19E2,8.48E2,3.73E2,4.12E2,7E0,1E0,8.47E2,6.2E1,3.11E2,4.01E2,1.1E1,4E0,3E0,6.2E1,7.85E2,3.6E1,2.6E1,3.8E1,2.73E2,2.3E1,3.78E2,5E0,6E0,3.7E1,2.5E1,1.68E2,6.17E2,3.3E1,3E0,9E0,1.7E1,2E1,1.8E1,2.29E2,4.4E1,2E1,3E0,3.46E2,3.2E1,4E0,1E0,5E0,1E0,3.6E1,1E0,2E1,5E0,5.4E1,1.14E2,1.26E2,4.91E2,1E1,2.3E1,4E0,5E0,1E0,1.6E1,1E1,1E1,7E0,1.1E1,7.9E1,1.5E2,3.7E1,7E0,1.7E1,3E0,2E0,1E0,5E1,2.96E2,3E1,2E0,1E0,3E0,3E0,2E0],"tree_param":{"num_deleted":"0","num_feature":"3","num_nodes":"79","size_leaf_vector":"1"}},{"base_weights":[4.8150535E-4,-7.139302E-2,7.720145E-4,1.100179E-1,3.249854E-4,1.3367195E-2,-4.8211967E-3,-1.03172116E-1,1.4861462E-2,-6.542477E-3,4.9867738E-2,-3.0417135E-2,-7.004206E-2,8.622432E-2,1.3638826E-2,-4.3413225E-3,-8.031634E-2,1.0607959E-1,1.3483661E-2,-1.6810775E-3,-1.352749E-2,-5.192456E-2,4.4512027E-3,-1.1161651E-3,-4.2199124E-2,-4.7889896E-2,-6.233664E-3,1.3636813E-2,7.388234E-2,1.1348263E-2,-4.8425425E-2],"categories":[],"categories_nodes":[],"categories_segments":[],"categories_sizes":[],"default_left":[0,0,0,0,0,0,0,0,0,0,0,0,0,0,0,0,0,0,0,0,0,0,0,0,0,0,0,0,0,0,0],"id":10,"left_children":[1,-1,3,-1,5,7,9,11,13,15,17,19,-1,-1,21,23,25,27,29,-1,-1,-1,-1,-1,-1,-1,-1,-1,-1,-1,-1],"loss_changes":[1.13862835E-1,0E0,2.6817206E-1,0E0,1.1007017E-1,8.233466E-2,1.11028984E-1,4.9778856E-2,1.4903393E-1,1.8493566E-1,7.2197445E-2,1.5679561E-3,0E0,0E0,1.0506284E-1,9.332597E-2,1.5251929E-1,1.07792914E-1,1.0403517E-1,0E0,0E0,0E0,0E0,0E0,0E0,0E0,0E0,0E0,0E0,0E0,0E0],"parents":[2147483647,0,0,2,2,4,4,5,5,6,6,7,7,8,8,9,9,10,10,11,11,14,14,15,15,16,16,17,17,18,18],"right_children":[2,-1,4,-1,6,8,10,12,14,16,18,20,-1,-1,22,24,26,28,30,-1,-1,-1,-1,-1,-1,-1,-1,-1,-1,-1,-1],"split_conditions":[2.4E1,-7.139302E-2,2.41E1,1.100179E-1,7.8E1,2.73E1,2.91E1,2.68E1,2.74E1,2.88E1,2.92E1,7.7E1,-7.004206E-2,8.622432E-2,2.75E1,9.8E1,2.89E1,1E-1,3E-1,-1.6810775E-3,-1.352749E-2,-5.192456E-2,4.4512027E-3,-1.1161651E-3,-4.2199124E-2,-4.7889896E-2,-6.233664E-3,1.3636813E-2,7.388234E-2,1.1348263E-2,-4.8425425E-2],"split_indices":[0,0,0,0,1,0,0,0,0,0,0,1,0,0,0,1,0,2,2,0,0,0,0,0,0,0,0,0,0,0,0],"split_type":[0,0,0,0,0,0,0,0,0,0,0,0,0,0,0,0,0,0,0,0,0,0,0,0,0,0,0,0,0,0,0],"sum_hessian":[1.64E3,1E0,1.639E3,1E0,1.638E3,4.63E2,1.175E3,5E0,4.58E2,1.14E3,3.5E1,4E0,1E0,1E0,4.57E2,1.108E3,3.2E1,1.3E1,2.2E1,2E0,2E0,2E0,4.55E2,1.104E3,4E0,1.3E1,1.9E1,1E1,3E0,2E1,2E0],"tree_param":{"num_deleted":"0","num_feature":"3","num_nodes":"31","size_leaf_vector":"1"}},{"base_weights":[3.0362286E-4,-1.022564E-3,4.005848E-2,9.857815E-4,-4.157751E-2,2.7423528E-1,1.53453685E-2,-8.329408E-4,1.4423007E-1,-5.300047E-2,7.50721E-2,3.281072E-2,1.4005502E-1,-3.440111E-2,1.1100939E-1,2.2862287E-4,-8.807079E-2,3.0927575E-1,2.2180459E-2,1.8715201E-2,-8.850846E-2,-1.4416121E-1,1.9588552E-2,-1.0386637E-2,1.7816965E-1,-6.454915E-4,1.1702131E-1,-3.032914E-1,4.48138E-2,1.3344623E-1,-6.49062E-2,1.4896244E-1,-2.686241E-1,-3.9006095E-2,3.315035E-1,-2.9960486E-1,-3.352164E-2,-1.783284E-1,2.96266E-2,-1.2416649E-1,7.762954E-2,8.258574E-2,-4.856352E-2,6.574749E-2,-3.475751E-2,5.498089E-5,-2.8063377E-2,-1.0890724E-1,7.921023E-2,-1.0541195E-1,-2.220136E-3,6.2111046E-2,-2.5003448E-3,-3.2472666E-2,3.2648745E-3,-6.0386717E-4,8.1043586E-2,-1.3011119E-1,-2.0708853E-2,1.2482951E-2,-3.289606E-2,1.256574E-1,1.0416037E-2,-1.0188529E-1,9.0764705E-3,3.92644E-2,-1.9915016E-2,-8.227424E-2,-3.6020312E-2,-1.780107E-2,-7.6971605E-2,8.856211E-2,2.9758723E-3,4.8911576E-3,3.6401715E-2],"categories":[],"categories_nodes":[],"categories_segments":[],"categories_sizes":[],"default_left":[0,0,0,0,0,0,0,0,0,0,0,0,0,0,0,0,0,0,0,0,0,0,0,0,0,0,0,0,0,0,0,0,0,0,0,0,0,0,0,0,0,0,0,0,0,0,0,0,0,0,0,0,0,0,0,0,0,0,0,0,0,0,0,0,0,0,0,0,0,0,0,0,0,0,0],"id":11,"left_children":[1,3,5,7,9,11,13,15,17,19,-1,-1,-1,21,23,25,27,29,31,33,35,37,39,41,43,45,47,49,51,-1,53,55,57,59,61,63,65,67,-1,69,71,73,-1,-1,-1,-1,-1,-1,-1,-1,-1,-1,-1,-1,-1,-1,-1,-1,-1,-1,-1,-1,-1,-1,-1,-1,-1,-1,-1,-1,-1,-1,-1,-1,-1],"loss_changes":[8.655838E-2,1.294624E-1,3.025153E-1,3.9481032E-1,2.632696E-1,1.0771939E-1,2.370073E-1,1.3865508E-1,3.7587154E-1,1.8754944E-1,0E0,0E0,0E0,1.9837897E-1,1.4045137E-1,1.5116897E-1,5.283828E-1,4.3461955E-1,4.824402E-1,4.6429434E-1,5.587251E-1,1.08908385E-1,2.0154372E-1,1.1196069E-1,1.5796116E-1,1.13194145E-1,8.721516E-1,9.698832E-2,1.0518804E-1,0E0,1.1031185E-2,1.6520432E-1,1.0185781E-1,1.2985943E-1,8.9158535E-2,1.4226103E-1,2.2479105E-1,2.2954881E-2,0E0,4.4862382E-2,2.4751845E-1,1.0864913E-2,0E0,0E0,0E0,0E0,0E0,0E0,0E0,0E0,0E0,0E0,0E0,0E0,0E0,0E0,0E0,0E0,0E0,0E0,0E0,0E0,0E0,0E0,0E0,0E0,0E0,0E0,0E0,0E0,0E0,0E0,0E0,0E0,0E0],"parents":[2147483647,0,0,1,1,2,2,3,3,4,4,5,5,6,6,7,7,8,8,9,9,13,13,14,14,15,15,16,16,17,17,18,18,19,19,20,20,21,21,22,22,23,23,24,24,25,25,26,26,27,27,28,28,30,30,31,31,32,32,33,33,34,34,35,35,36,36,37,37,39,39,40,40,41,41],"right_children":[2,4,6,8,10,12,14,16,18,20,-1,-1,-1,22,24,26,28,30,32,34,36,38,40,42,44,46,48,50,52,-1,54,56,58,60,62,64,66,68,-1,70,72,74,-1,-1,-1,-1,-1,-1,-1,-1,-1,-1,-1,-1,-1,-1,-1,-1,-1,-1,-1,-1,-1,-1,-1,-1,-1,-1,-1,-1,-1,-1,-1,-1,-1],"split_conditions":[3.5E0,1.7E0,3.8E0,1.5E0,9.5E1,9.3E1,2.66E1,1.3E0,8.6E1,8.4E1,7.50721E-2,3.281072E-2,1.4005502E-1,8.9E1,8.3E1,1.2E0,2.69E1,2.82E1,2.68E1,8.3E1,8.6E1,1.42E1,2.49E1,8.2E1,8.8E1,1.1E0,2.59E1,9.1E1,2.7E1,1.3344623E-1,2.86E1,1.6E0,2.7E1,2.5E0,2.79E1,2.78E1,8.8E1,2.59E1,2.96266E-2,9.2E0,2.52E1,4E0,-4.856352E-2,6.574749E-2,-3.475751E-2,5.498089E-5,-2.8063377E-2,-1.0890724E-1,7.921023E-2,-1.0541195E-1,-2.220136E-3,6.2111046E-2,-2.5003448E-3,-3.2472666E-2,3.2648745E-3,-6.0386717E-4,8.1043586E-2,-1.3011119E-1,-2.0708853E-2,1.2482951E-2,-3.289606E-2,1.256574E-1,1.0416037E-2,-1.0188529E-1,9.0764705E-3,3.92644E-2,-1.9915016E-2,-8.227424E-2,-3.6020312E-2,-1.780107E-2,-7.6971605E-2,8.856211E-2,2.9758723E-3,4.8911576E-3,3.6401715E-2],"split_indices":[2,2,2,2,1,1,0,2,1,1,0,0,0,1,1,2,0,0,0,1,1,2,0,1,1,2,0,1,0,0,0,2,0,2,0,0,1,0,0,2,0,2,0,0,0,0,0,0,0,0,0,0,0,0,0,0,0,0,0,0,0,0,0,0,0,0,0,0,0,0,0,0,0,0,0],"split_type":[0,0,0,0,0,0,0,0,0,0,0,0,0,0,0,0,0,0,0,0,0,0,0,0,0,0,0,0,0,0,0,0,0,0,0,0,0,0,0,0,0,0,0,0,0,0,0,0,0,0,0,0,0,0,0,0,0,0,0,0,0,0,0,0,0,0,0,0,0,0,0,0,0,0,0],"sum_hessian":[1.64E3,1.588E3,5.2E1,1.514E3,7.4E1,4E0,4.8E1,1.496E3,1.8E1,7.2E1,2E0,3E0,1E0,3.2E1,1.6E1,1.479E3,1.7E1,7E0,1.1E1,2.4E1,4.8E1,1E1,2.2E1,6E0,1E1,1.469E3,1E1,6E0,1.1E1,5E0,2E0,8E0,3E0,2.1E1,3E0,9E0,3.9E1,9E0,1E0,6E0,1.6E1,4E0,2E0,9E0,1E0,1.457E3,1.2E1,2E0,8E0,5E0,1E0,2E0,9E0,1E0,1E0,4E0,4E0,1E0,2E0,1E1,1.1E1,2E0,1E0,8E0,1E0,6E0,3.3E1,2E0,7E0,5E0,1E0,3E0,1.3E1,2E0,2E0],"tree_param":{"num_deleted":"0","num_feature":"3","num_nodes":"75","size_leaf_vector":"1"}},{"base_weights":[3.040186E-4,-6.0692314E-2,5.5092067E-4,9.350698E-2,1.7091526E-4,-6.510642E-2,4.36003E-4,1.4361657E-1,-9.0340814E-5,-3.1944245E-2,2.1493222E-1,-1.1533368E-1,4.767176E-4,1.4622349E-1,7.487843E-3,2.2632184E-2,-5.744956E-2,-3.4166433E-4,1.19775655E-2],"categories":[],"categories_nodes":[],"categories_segments":[],"categories_sizes":[],"default_left":[0,0,0,0,0,0,0,0,0,0,0,0,0,0,0,0,0,0,0],"id":12,"left_children":[1,-1,3,-1,5,-1,7,9,11,-1,13,15,17,-1,-1,-1,-1,-1,-1],"loss_changes":[8.2202904E-2,0E0,1.9385132E-1,0E0,9.4460085E-2,0E0,1.2345627E-1,1.2990129E-1,1.06771044E-1,0E0,2.4665274E-1,1.3068914E-1,1.0367524E-1,0E0,0E0,0E0,0E0,0E0,0E0],"parents":[2147483647,0,0,2,2,4,4,6,6,7,7,8,8,10,10,11,11,12,12],"right_children":[2,-1,4,-1,6,-1,8,10,12,-1,14,16,18,-1,-1,-1,-1,-1,-1],"split_conditions":[2.4E1,-6.0692314E-2,2.41E1,9.350698E-2,2.42E1,-6.510642E-2,2.43E1,9.3E1,2.44E1,-3.1944245E-2,9.4E1,9.4E1,9.4E1,1.4622349E-1,7.487843E-3,2.2632184E-2,-5.744956E-2,-3.4166433E-4,1.19775655E-2],"split_indices":[0,0,0,0,0,0,0,1,0,0,1,1,1,0,0,0,0,0,0],"split_type":[0,0,0,0,0,0,0,0,0,0,0,0,0,0,0,0,0,0,0],"sum_hessian":[1.64E3,1E0,1.639E3,1E0,1.638E3,1E0,1.637E3,5E0,1.632E3,1E0,4E0,7E0,1.625E3,1E0,3E0,2E0,5E0,1.562E3,6.3E1],"tree_param":{"num_deleted":"0","num_feature":"3","num_nodes":"19","size_leaf_vector":"1"}}]},"name":"gbtree"},"learner_model_param":{"base_score":"9.605997E-1","boost_from_average":"1","num_class":"0","num_feature":"3","num_target":"1"},"objective":{"name":"reg:squarederror","reg_loss_param":{"scale_pos_weight":"1"}}},"version":[2,0,3]}